<?xml version="1.0"?>
<opencv_storage>
<opencv_ml_svm>
  <format>3</format>
  <svmType>C_SVC</svmType>
  <kernel>
    <type>LINEAR</type></kernel>
  <C>1.</C>
  <term_criteria><epsilon>1.0000000000000000e-02</epsilon>
    <iterations>3500</iterations></term_criteria>
  <var_count>256</var_count>
  <class_count>4</class_count>
  <class_labels type_id="opencv-matrix">
    <rows>4</rows>
    <cols>1</cols>
    <dt>i</dt>
    <data>
      1 2 3 4</data></class_labels>
  <sv_total>6</sv_total>
  <support_vectors>
    <_>
      -2.91379334e-18 -2.91379334e-18 -2.91379334e-18 -2.91379334e-18
      -2.91379334e-18 -2.91379334e-18 -2.91379334e-18 -2.91379334e-18
      -2.91379334e-18 -2.91379334e-18 -2.91379334e-18 -2.91379334e-18
      -2.91379334e-18 -2.91379334e-18 -2.91379334e-18 -2.91379334e-18
      -2.91379334e-18 -2.91379334e-18 -2.91379334e-18 -2.91379334e-18
      -2.91379334e-18 -2.91379334e-18 -2.91379334e-18 -2.91379334e-18
      -2.91379334e-18 -2.91379334e-18 -2.91379334e-18 -2.91379334e-18
      -2.91379334e-18 -2.91379334e-18 -2.91379334e-18 -2.91379334e-18
      -2.91379334e-18 -2.91379334e-18 -2.91379334e-18 -2.91379334e-18
      -2.91379334e-18 5.37188549e-04 -8.01505113e-04 -3.70048941e-03
      -3.30422004e-03 8.07150907e-04 -4.42849443e-04 1.10531575e-03
      3.86479369e-04 3.74235853e-04 -2.91379334e-18 -2.91379334e-18
      -2.91379334e-18 -2.91379334e-18 -2.91379334e-18 1.32822452e-05
      -2.72297330e-04 -3.24823108e-04 1.19319861e-03 1.05838454e-03
      -1.78235234e-04 2.32065388e-04 9.49506124e-04 1.01716851e-03
      4.53708111e-04 5.92720520e-04 -2.91379334e-18 -2.91379334e-18
      -2.91379334e-18 -2.91379334e-18 -2.91379334e-18 -2.72297330e-04
      -3.04565358e-04 5.90313517e-04 8.22497415e-04 -4.62791882e-04
      1.23258680e-03 6.07008114e-04 5.63965412e-04 8.26653326e-04
      -2.76901032e-04 4.21272649e-04 -2.91379334e-18 -2.91379334e-18
      -2.91379334e-18 -2.91379334e-18 -2.91379334e-18 -3.17847589e-04
      -8.02781782e-04 1.01377314e-03 3.27310641e-04 -3.95502633e-04
      1.38106022e-03 6.49941503e-04 -4.83020012e-05 -9.29586822e-05
      -3.12760938e-04 -2.62092275e-04 -2.91379334e-18 -2.91379334e-18
      -2.91379334e-18 -2.91379334e-18 -1.15534094e-04 -5.79939864e-04
      -7.60081282e-04 -1.10009889e-04 -2.92278314e-03 -2.54144601e-04
      2.10015383e-03 8.05244781e-04 -1.22242921e-03 -7.22133671e-04
      -9.69377172e-04 -5.47671865e-04 -2.91379334e-18 -2.91379334e-18
      -2.91379334e-18 -2.91379334e-18 -2.85579590e-04 -5.79939864e-04
      -1.33704947e-04 -2.92384502e-04 -3.26302159e-03 8.03791409e-05
      1.38655049e-03 6.69621455e-04 8.45967385e-04 -1.92700862e-03
      -9.69377172e-04 -5.47671865e-04 -2.91379334e-18 -2.91379334e-18
      -2.91379334e-18 -2.91379334e-18 -5.47671865e-04 -1.28444564e-03
      -1.66076515e-03 -1.66937913e-04 -1.23317947e-03 7.63744116e-04
      1.31522410e-03 -5.26637072e-04 -2.10564336e-04 -1.07859692e-03
      -5.79939864e-04 -2.85579590e-04 -2.91379334e-18 -2.91379334e-18
      -2.91379334e-18 -2.91379334e-18 -9.54787189e-04 -1.44193426e-03
      -1.60361570e-03 -2.07513664e-03 -1.39346521e-04 1.09957810e-03
      3.70257563e-04 -2.21026386e-03 -8.58381914e-04 -1.02217356e-03
      -5.79939864e-04 -2.85579590e-04 -2.91379334e-18 -2.91379334e-18
      -2.91379334e-18 -2.91379334e-18 -1.11259718e-03 -1.33450190e-03
      -6.23821281e-04 -7.67964404e-04 -9.16770776e-04 -4.13245667e-04
      -4.15639166e-04 7.84628719e-05 -1.62960717e-03 -8.02781782e-04
      -3.17847589e-04 -2.91379334e-18 -2.91379334e-18 -2.91379334e-18
      -2.91379334e-18 -2.91379334e-18 -4.29232256e-04 -5.03013376e-04
      -2.19085341e-05 -6.78862561e-04 -9.56861244e-04 -6.85319072e-04
      -1.11446669e-03 -1.10522436e-03 -3.03066859e-04 -3.04565358e-04
      -2.85579590e-04 -2.91379334e-18 -2.91379334e-18 -2.91379334e-18
      -2.91379334e-18 -2.91379334e-18 8.68095027e-04 3.17915779e-04
      1.04431831e-03 1.26502840e-04 -4.05123195e-04 -5.85805508e-04
      -8.02669150e-04 -3.50071001e-04 4.12403111e-04 4.34391899e-04
      1.32822452e-05 1.32822452e-05 -2.91379334e-18 -2.91379334e-18
      -2.91379334e-18 -2.91379334e-18 1.15855531e-04 5.15617139e-04
      9.35143733e-04 -5.04229101e-04 -1.26479019e-03 2.35114159e-04
      9.68663953e-04 1.29234511e-03 7.81046320e-03 1.32822452e-05
      1.32822452e-05 -2.91379334e-18 -2.91379334e-18 -2.91379334e-18
      -2.91379334e-18 -2.91379334e-18 -2.91379334e-18 -2.91379334e-18
      -2.91379334e-18 -2.91379334e-18 -2.91379334e-18 -2.91379334e-18
      -1.73103695e-06 -2.91379334e-18 -2.91379334e-18 -2.91379334e-18
      -2.91379334e-18 -2.91379334e-18 -2.91379334e-18 -2.91379334e-18
      -2.91379334e-18 -2.91379334e-18 -2.91379334e-18 -2.91379334e-18
      -2.91379334e-18 -2.91379334e-18 -2.91379334e-18 -2.91379334e-18
      -2.91379334e-18 -2.91379334e-18 -2.91379334e-18 -2.91379334e-18
      -2.91379334e-18 -2.91379334e-18 -2.91379334e-18 -2.91379334e-18</_>
    <_>
      2.71050543e-18 2.71050543e-18 2.71050543e-18 2.71050543e-18
      2.71050543e-18 2.71050543e-18 2.71050543e-18 2.71050543e-18
      2.71050543e-18 2.71050543e-18 2.71050543e-18 2.71050543e-18
      2.71050543e-18 2.71050543e-18 2.71050543e-18 2.71050543e-18
      2.71050543e-18 2.71050543e-18 2.71050543e-18 2.71050543e-18
      2.71050543e-18 2.71050543e-18 2.90092779e-04 2.90092779e-04
      2.90092779e-04 2.90092779e-04 2.71050543e-18 2.71050543e-18
      2.71050543e-18 2.71050543e-18 2.71050543e-18 2.71050543e-18
      2.71050543e-18 2.71050543e-18 2.71050543e-18 2.71050543e-18
      6.10002666e-04 1.43139926e-03 1.29901629e-03 2.23727897e-04
      3.08111448e-05 -2.14279964e-04 7.50861596e-04 -1.94493623e-04
      3.39315360e-04 4.10930079e-04 2.71050543e-18 2.71050543e-18
      2.71050543e-18 2.71050543e-18 2.71050543e-18 7.20888711e-05
      -1.52134729e-04 9.14513483e-04 3.24114837e-04 3.43267195e-04
      1.72231084e-04 4.51732689e-04 3.15695826e-04 4.54152701e-04
      3.76886397e-04 1.91613963e-05 2.71050543e-18 2.71050543e-18
      2.71050543e-18 2.71050543e-18 2.71050543e-18 2.18212062e-05
      -3.32955642e-06 -1.41618380e-04 -3.22895212e-04 -3.15736514e-04
      -1.11368470e-04 2.02234150e-04 9.15555749e-04 4.50849388e-04
      -3.29238886e-04 6.88988948e-04 2.71050543e-18 2.71050543e-18
      2.71050543e-18 2.71050543e-18 2.71050543e-18 -7.68285012e-04
      -6.39078673e-04 -4.75255540e-04 2.81877932e-04 6.07283087e-04
      7.84996955e-04 6.33135729e-04 -4.93336527e-04 1.13503041e-03
      -5.65814480e-05 4.72956250e-04 2.71050543e-18 2.71050543e-18
      2.71050543e-18 2.71050543e-18 -7.82364950e-05 -1.28507649e-03
      -2.26990622e-03 -1.14997639e-03 -2.46158987e-03 -5.33509825e-04
      1.97633379e-03 3.88576213e-04 -2.78361476e-05 1.36694303e-04
      -4.05401079e-05 -9.46691143e-04 2.71050543e-18 2.71050543e-18
      2.71050543e-18 2.71050543e-18 -2.79647851e-04 -1.20684004e-03
      -1.16283970e-03 -1.33235217e-03 -2.84633297e-03 5.59958455e-04
      1.69819512e-03 2.71709956e-04 -6.16480713e-04 -8.04449548e-04
      -1.14728021e-03 -9.46691143e-04 2.71050543e-18 2.71050543e-18
      2.71050543e-18 2.71050543e-18 -5.73206751e-04 -1.28676544e-03
      -2.15718499e-03 -7.47362908e-04 -1.57823192e-03 -3.54612363e-04
      6.20481442e-04 1.46732852e-03 8.46856739e-04 2.39005560e-04
      -9.41113685e-04 -2.79647851e-04 2.71050543e-18 2.71050543e-18
      2.71050543e-18 2.71050543e-18 -5.22939081e-04 -7.79827824e-04
      -1.85969949e-03 -1.42905605e-03 -1.36066892e-03 -1.96457678e-03
      3.22053238e-04 9.88236861e-04 4.66794590e-04 8.44105671e-04
      -1.15548217e-04 2.18212062e-05 2.71050543e-18 2.71050543e-18
      2.71050543e-18 2.71050543e-18 3.01196473e-04 -4.79877926e-04
      1.01585174e-04 -5.78497711e-04 -4.03348036e-04 -4.32675406e-05
      -4.79009934e-04 1.11655747e-04 4.67407081e-04 6.46032859e-04
      7.02638761e-04 7.20888711e-05 2.71050543e-18 2.71050543e-18
      2.71050543e-18 2.71050543e-18 5.51192730e-04 -3.02772678e-04
      -1.05012870e-04 1.68305560e-04 -5.86822338e-04 -2.41697460e-04
      -5.36338048e-05 2.08451602e-04 7.26248836e-04 4.84104268e-04
      9.06946429e-04 7.20888711e-05 2.71050543e-18 2.71050543e-18
      2.71050543e-18 2.71050543e-18 1.27261868e-04 1.02150696e-03
      9.61780082e-04 1.96303627e-05 -1.86658304e-04 -2.69477139e-04
      -3.36163939e-04 -5.13769104e-04 4.76344103e-05 4.21097473e-04
      7.20888711e-05 2.71050543e-18 2.71050543e-18 2.71050543e-18
      2.71050543e-18 2.71050543e-18 7.81973213e-05 4.81627649e-04
      3.32911965e-04 6.05849142e-04 -1.32075453e-03 -1.15549413e-03
      -4.62961936e-04 -4.07409185e-04 4.27245104e-04 -4.85848956e-04
      2.71050543e-18 2.71050543e-18 2.71050543e-18 2.71050543e-18
      2.71050543e-18 2.71050543e-18 2.71050543e-18 2.71050543e-18
      2.71050543e-18 2.71050543e-18 6.84866449e-04 3.05910478e-04
      -2.04199154e-04 2.71050543e-18 2.71050543e-18 2.71050543e-18
      2.71050543e-18 2.71050543e-18 2.71050543e-18 2.71050543e-18
      2.71050543e-18 2.71050543e-18 2.71050543e-18 2.71050543e-18
      2.71050543e-18 2.71050543e-18 2.71050543e-18 2.71050543e-18
      2.71050543e-18 2.71050543e-18 2.71050543e-18 2.71050543e-18
      2.71050543e-18 2.71050543e-18 2.71050543e-18 2.71050543e-18</_>
    <_>
      -4.33680869e-18 -4.33680869e-18 -4.33680869e-18 -4.33680869e-18
      -4.33680869e-18 -4.33680869e-18 -4.33680869e-18 -4.33680869e-18
      -4.33680869e-18 -4.33680869e-18 -4.33680869e-18 -4.33680869e-18
      -4.33680869e-18 -4.33680869e-18 -4.33680869e-18 -4.33680869e-18
      -4.33680869e-18 -4.33680869e-18 -4.33680869e-18 -4.33680869e-18
      -4.33680869e-18 -4.33680869e-18 -4.33680869e-18 -4.33680869e-18
      -4.33680869e-18 -4.33680869e-18 -4.33680869e-18 -4.33680869e-18
      -4.33680869e-18 -4.33680869e-18 -4.33680869e-18 -4.33680869e-18
      -4.33680869e-18 -4.33680869e-18 -4.33680869e-18 -4.33680869e-18
      4.26280632e-04 1.65560818e-03 2.34753755e-03 7.75337743e-04
      -8.41104484e-04 5.53516787e-04 2.50564539e-03 1.52685342e-03
      1.47080119e-03 8.71280092e-04 -4.33680869e-18 -4.33680869e-18
      -4.33680869e-18 -4.33680869e-18 -4.33680869e-18 1.48893057e-04
      -6.62427847e-05 3.57766519e-04 -8.79122526e-04 2.71132169e-03
      -6.52941468e-04 9.14754462e-04 1.58413872e-03 -2.57531792e-04
      -9.19963815e-04 8.85685557e-04 -4.33680869e-18 -4.33680869e-18
      -4.33680869e-18 -4.33680869e-18 -4.33680869e-18 1.48893057e-04
      -7.91158644e-04 -3.40366067e-04 3.26235808e-04 -1.43748228e-04
      -8.04360025e-04 -2.64177943e-04 -8.16955464e-04 -6.96684117e-04
      -1.68309372e-03 -1.59247115e-03 -4.33680869e-18 -4.33680869e-18
      -4.33680869e-18 -4.33680869e-18 -4.33680869e-18 -3.43630352e-04
      2.58985878e-04 1.54214038e-03 2.02965434e-03 7.62164185e-04
      -6.37669116e-04 -2.43008093e-04 -9.40950471e-04 -1.10269000e-03
      -1.67344452e-03 -1.67266489e-03 -4.33680869e-18 -4.33680869e-18
      -4.33680869e-18 -4.33680869e-18 -4.33680869e-18 -1.30213529e-03
      -1.74032745e-03 3.74083145e-04 -8.01623624e-04 1.39686523e-03
      6.30722730e-04 -1.91343506e-03 -2.76527461e-03 -1.73125498e-03
      -1.93576491e-03 -2.42058444e-03 -4.33680869e-18 -4.33680869e-18
      -4.33680869e-18 -4.33680869e-18 -5.76022838e-04 -2.00384980e-04
      -2.12201197e-03 -3.61754413e-04 1.67032087e-03 1.71450572e-03
      2.66769109e-03 5.24422561e-04 1.18822476e-03 1.66691152e-05
      -8.05057469e-04 -1.85774348e-03 -4.33680869e-18 -4.33680869e-18
      -4.33680869e-18 -4.33680869e-18 5.65245864e-04 -6.40342652e-04
      -4.09440231e-03 -2.34027160e-03 -2.65200133e-03 -5.39589673e-04
      2.10591150e-03 2.89229816e-03 1.53573242e-03 1.10693381e-03
      -3.33999255e-04 -1.47526141e-03 -4.33680869e-18 -4.33680869e-18
      -4.33680869e-18 -4.33680869e-18 -1.64854899e-03 -5.53989317e-04
      -1.47301017e-03 -2.29888107e-03 -2.59897369e-03 -1.29451114e-03
      8.48362863e-04 5.05078759e-04 6.71175017e-04 2.69692321e-03
      5.25423849e-04 1.48893057e-04 -4.33680869e-18 -4.33680869e-18
      -4.33680869e-18 -4.33680869e-18 -6.59346057e-04 -5.72382938e-04
      -1.08911900e-03 3.82396975e-05 -5.37301356e-04 -5.26211166e-04
      2.08953279e-04 5.93242548e-05 3.08062066e-04 1.59481273e-03
      5.39934787e-04 1.48893057e-04 -4.33680869e-18 -4.33680869e-18
      -4.33680869e-18 -4.33680869e-18 1.59698632e-03 1.60785974e-03
      1.28213665e-04 -2.69425036e-05 -1.26630801e-03 -1.54643506e-03
      -1.06243056e-03 -1.28221407e-03 1.99927110e-03 1.23835611e-03
      1.48893057e-04 1.48893057e-04 -4.33680869e-18 -4.33680869e-18
      -4.33680869e-18 -4.33680869e-18 6.36763754e-04 2.88951118e-03
      8.87376314e-04 3.22040083e-04 -2.55316874e-04 -9.12731164e-04
      -1.94752112e-03 -1.57298986e-03 -6.30283394e-05 2.84538808e-04
      1.48893057e-04 -4.33680869e-18 -4.33680869e-18 -4.33680869e-18
      -4.33680869e-18 -4.33680869e-18 -4.50662686e-04 1.63020089e-03
      -1.13544043e-03 -1.11613690e-03 -1.04937714e-03 -1.97791215e-03
      -1.40744960e-03 -1.85360515e-03 -6.67216736e-05 -4.33680869e-18
      -4.33680869e-18 -4.33680869e-18 -4.33680869e-18 -4.33680869e-18
      -4.33680869e-18 -4.33680869e-18 -4.33680869e-18 -4.33680869e-18
      -4.33680869e-18 -4.33680869e-18 2.88251584e-04 -6.13939192e-04
      -2.16051398e-04 -4.33680869e-18 -4.33680869e-18 -4.33680869e-18
      -4.33680869e-18 -4.33680869e-18 -4.33680869e-18 -4.33680869e-18
      -4.33680869e-18 -4.33680869e-18 -4.33680869e-18 -4.33680869e-18
      -4.33680869e-18 -4.33680869e-18 -4.33680869e-18 -4.33680869e-18
      -4.33680869e-18 -4.33680869e-18 -4.33680869e-18 -4.33680869e-18
      -4.33680869e-18 -4.33680869e-18 -4.33680869e-18 -4.33680869e-18</_>
    <_>
      1.27935856e-17 1.27935856e-17 1.27935856e-17 1.27935856e-17
      1.27935856e-17 1.27935856e-17 1.27935856e-17 1.27935856e-17
      1.27935856e-17 1.27935856e-17 1.27935856e-17 1.27935856e-17
      1.27935856e-17 1.27935856e-17 1.27935856e-17 1.27935856e-17
      1.27935856e-17 1.27935856e-17 1.27935856e-17 1.27935856e-17
      1.27935856e-17 1.27935856e-17 1.27935856e-17 1.27935856e-17
      1.27935856e-17 1.27935856e-17 1.27935856e-17 1.27935856e-17
      1.27935856e-17 1.27935856e-17 1.27935856e-17 1.27935856e-17
      1.27935856e-17 1.27935856e-17 1.27935856e-17 4.87752084e-04
      -1.69399055e-03 3.71959340e-03 1.82938843e-03 3.71638732e-03
      2.25086953e-03 8.21075751e-04 -5.21654496e-04 -1.71468360e-03
      -1.28271349e-03 1.44661486e-03 1.27935856e-17 1.27935856e-17
      1.27935856e-17 1.27935856e-17 1.27935856e-17 2.96043087e-04
      -7.14399794e-04 1.88317685e-03 1.41547853e-03 -2.25405348e-03
      1.13559340e-03 -2.48162216e-03 -2.63965339e-03 3.55690718e-03
      -5.34100633e-04 -1.89911760e-03 1.27935856e-17 1.27935856e-17
      1.27935856e-17 1.27935856e-17 1.27935856e-17 9.79590695e-04
      3.91426060e-04 -1.77521678e-03 2.09932658e-03 7.06182836e-05
      -1.46088470e-03 -1.77510409e-03 -2.53356947e-03 4.24170576e-04
      -8.57558334e-04 6.80535333e-04 1.27935856e-17 1.27935856e-17
      1.27935856e-17 1.27935856e-17 1.27935856e-17 1.27935856e-17
      1.20807032e-04 -6.11150754e-04 1.60928548e-03 1.54022826e-03
      -1.64043464e-04 -1.39656104e-03 1.46061194e-03 -8.03150062e-04
      1.70475699e-03 6.80535333e-04 1.27935856e-17 1.27935856e-17
      1.27935856e-17 1.27935856e-17 1.27935856e-17 1.27935856e-17
      -2.62709164e-05 -2.17979890e-04 -9.59524768e-04 -1.84258693e-04
      4.37030685e-04 1.79025962e-03 -3.07748676e-04 6.18502672e-04
      6.80535333e-04 1.27935856e-17 1.27935856e-17 1.27935856e-17
      1.27935856e-17 1.27935856e-17 1.27935856e-17 1.27935856e-17
      -2.62709164e-05 2.96043087e-04 -1.55169435e-03 2.16625095e-03
      -1.04784581e-03 -3.43922293e-03 5.19916532e-04 3.73559329e-03
      4.87752084e-04 1.27935856e-17 1.27935856e-17 1.27935856e-17
      1.27935856e-17 1.27935856e-17 1.27935856e-17 1.27935856e-17
      1.27935856e-17 2.96043087e-04 -3.42508320e-05 -2.74688005e-03
      -8.57649778e-04 4.56140749e-03 2.43485323e-03 1.67912501e-03
      1.51197379e-03 1.27935856e-17 1.27935856e-17 1.27935856e-17
      1.27935856e-17 1.27935856e-17 1.27935856e-17 1.27935856e-17
      1.27935856e-17 -7.58403039e-04 8.48473923e-04 -6.19022315e-03
      3.27520655e-04 1.95519556e-03 2.53782142e-03 1.78908324e-03
      1.65905175e-03 1.51197379e-03 1.27935856e-17 1.27935856e-17
      1.27935856e-17 1.27935856e-17 6.56402495e-04 6.80535333e-04
      1.94409583e-03 -8.02458206e-04 -2.88806787e-05 1.96334833e-04
      6.81483652e-05 2.12329742e-03 5.74866822e-03 2.45625782e-03
      -2.25020311e-04 -8.59850319e-04 1.27935856e-17 1.27935856e-17
      1.27935856e-17 1.27935856e-17 -4.51139465e-04 2.39515118e-03
      2.41881027e-03 6.90730405e-04 1.39965327e-03 2.80806766e-04
      -1.15596538e-03 8.40090506e-04 -6.56403776e-04 -5.85570640e-04
      -3.43027612e-04 -2.00207927e-03 1.27935856e-17 1.27935856e-17
      1.27935856e-17 1.27935856e-17 2.21905182e-03 -4.33367532e-05
      1.02643715e-03 1.44424650e-03 -1.96120027e-03 -6.65007450e-04
      2.10896879e-03 -1.09636784e-03 -4.55270114e-04 -1.55809335e-03
      -1.91708968e-04 -1.91708968e-04 1.27935856e-17 1.27935856e-17
      1.27935856e-17 1.27935856e-17 1.75196305e-03 -7.40318152e-04
      -1.00676971e-03 1.70097291e-03 5.03090397e-03 8.17477820e-04
      -3.73897236e-03 -3.57662747e-03 -6.45718817e-03 -3.71680153e-03
      -1.91708968e-04 1.27935856e-17 1.27935856e-17 1.27935856e-17
      1.27935856e-17 1.27935856e-17 1.27935856e-17 1.27935856e-17
      -1.08409207e-03 -7.51121668e-04 -7.51121668e-04 3.34727415e-03
      3.34727415e-03 -1.08409207e-03 1.27935856e-17 1.27935856e-17
      1.27935856e-17 1.27935856e-17 1.27935856e-17 1.27935856e-17
      1.27935856e-17 1.27935856e-17 1.27935856e-17 1.27935856e-17
      1.27935856e-17 1.27935856e-17 1.27935856e-17 1.27935856e-17
      1.27935856e-17 1.27935856e-17 1.27935856e-17 1.27935856e-17
      1.27935856e-17 1.27935856e-17 1.27935856e-17 1.27935856e-17</_>
    <_>
      -7.37257477e-18 -7.37257477e-18 -7.37257477e-18 -7.37257477e-18
      -7.37257477e-18 -7.37257477e-18 -7.37257477e-18 -7.37257477e-18
      -7.37257477e-18 -7.37257477e-18 -7.37257477e-18 -7.37257477e-18
      -7.37257477e-18 -7.37257477e-18 -7.37257477e-18 -7.37257477e-18
      -7.37257477e-18 -7.37257477e-18 -7.37257477e-18 -7.37257477e-18
      -7.37257477e-18 -7.37257477e-18 -7.37257477e-18 -7.37257477e-18
      -7.37257477e-18 -7.37257477e-18 -7.37257477e-18 -7.37257477e-18
      -7.37257477e-18 -7.37257477e-18 -7.37257477e-18 -7.37257477e-18
      -7.37257477e-18 -7.37257477e-18 -7.37257477e-18 -7.37257477e-18
      -8.75232436e-05 -5.20760914e-05 1.92799361e-03 1.95973506e-03
      -3.50153568e-05 5.05447853e-04 -1.13561737e-05 -4.82305477e-04
      -3.12745309e-04 1.98921858e-04 -7.37257477e-18 -7.37257477e-18
      -7.37257477e-18 -7.37257477e-18 -7.37257477e-18 -8.96969505e-05
      -1.76580579e-04 6.27938716e-04 8.57641106e-04 -8.31771758e-05
      8.34736507e-04 -5.03462914e-04 1.24094693e-03 1.16760377e-03
      8.81230982e-04 1.20777998e-03 -7.37257477e-18 -7.37257477e-18
      -7.37257477e-18 -7.37257477e-18 -7.37257477e-18 -1.59922143e-04
      -3.66318680e-04 -2.10312501e-05 3.53067095e-04 -3.62950144e-04
      -1.44581881e-03 -1.65869133e-03 -7.63859483e-04 -3.85709776e-04
      -1.53879169e-03 7.39975658e-04 -7.37257477e-18 -7.37257477e-18
      -7.37257477e-18 -7.37257477e-18 -7.37257477e-18 -7.37257477e-18
      -2.06396537e-04 -3.06283531e-04 6.69389323e-04 1.39816618e-03
      -4.42766031e-04 -1.51335541e-03 -2.41031917e-03 -1.42226764e-03
      4.19623626e-04 -7.37257477e-18 -7.37257477e-18 -7.37257477e-18
      -7.37257477e-18 -7.37257477e-18 -7.37257477e-18 -7.37257477e-18
      5.07831399e-04 4.05194238e-04 1.59565196e-03 5.21081151e-04
      -1.07250491e-03 -1.68076297e-03 -7.93907966e-04 3.58616177e-04
      1.98921858e-04 -7.37257477e-18 -7.37257477e-18 -7.37257477e-18
      -7.37257477e-18 -7.37257477e-18 -7.37257477e-18 -7.37257477e-18
      -1.35580369e-03 -1.23875361e-04 2.83400388e-03 -5.17106033e-04
      -1.07586780e-03 2.54167739e-04 1.50314986e-03 2.47073174e-03
      1.98921858e-04 -7.37257477e-18 -7.37257477e-18 -7.37257477e-18
      -7.37257477e-18 -7.37257477e-18 -7.37257477e-18 1.98921858e-04
      -4.98643902e-04 5.86625305e-04 -6.25888235e-04 -1.65681751e-03
      1.22109673e-03 2.10366165e-03 1.84938195e-03 8.31999991e-04
      1.98921858e-04 -7.37257477e-18 -7.37257477e-18 -7.37257477e-18
      -7.37257477e-18 -7.37257477e-18 1.98921858e-04 6.18545455e-04
      -7.37257477e-18 -1.93811895e-03 -1.48565904e-03 -4.61094751e-04
      -3.77727361e-06 1.24239933e-03 8.72805773e-04 1.25388394e-03
      9.84014594e-04 -7.37257477e-18 -7.37257477e-18 -7.37257477e-18
      -7.37257477e-18 -7.37257477e-18 1.97750959e-03 1.45823578e-03
      1.19013235e-03 8.30556310e-05 6.75413059e-04 -4.21206438e-04
      2.70324410e-04 -2.81136945e-05 1.11358089e-03 7.68008817e-04
      7.85092765e-04 -7.37257477e-18 -7.37257477e-18 -7.37257477e-18
      -7.37257477e-18 -7.37257477e-18 3.95892101e-04 1.93318946e-03
      1.37838174e-03 -1.32330938e-03 7.67451653e-04 -8.91780714e-04
      2.23880008e-04 -6.55197422e-04 1.02972983e-04 -2.24605348e-04
      -3.59911792e-04 -8.26504620e-05 -7.37257477e-18 -7.37257477e-18
      -7.37257477e-18 -7.37257477e-18 1.47508807e-03 5.87488117e-04
      4.45681741e-04 6.36763521e-04 -5.41438174e-04 -2.60666220e-05
      -9.56046628e-04 -7.86887656e-04 -5.05538192e-04 -1.02512119e-03
      -4.37183480e-04 -8.96969505e-05 -7.37257477e-18 -7.37257477e-18
      -7.37257477e-18 -7.37257477e-18 -8.26504620e-05 -1.02311329e-04
      7.53673376e-04 6.19621598e-04 8.25783762e-04 -9.96159739e-04
      -1.65539258e-03 -1.55309483e-03 -2.18684319e-03 -1.19804358e-03
      -4.37183480e-04 -7.37257477e-18 -7.37257477e-18 -7.37257477e-18
      -7.37257477e-18 -7.37257477e-18 -7.37257477e-18 -7.37257477e-18
      -7.37257477e-18 -7.37257477e-18 1.33282170e-04 -7.37257477e-18
      -7.37257477e-18 -3.52592993e-04 -7.37257477e-18 -7.37257477e-18
      -7.37257477e-18 -7.37257477e-18 -7.37257477e-18 -7.37257477e-18
      -7.37257477e-18 -7.37257477e-18 -7.37257477e-18 -7.37257477e-18
      -7.37257477e-18 -7.37257477e-18 -7.37257477e-18 -7.37257477e-18
      -7.37257477e-18 -7.37257477e-18 -7.37257477e-18 -7.37257477e-18
      -7.37257477e-18 -7.37257477e-18 -7.37257477e-18 -7.37257477e-18</_>
    <_>
      -2.81892565e-18 -2.81892565e-18 -2.81892565e-18 -2.81892565e-18
      -2.81892565e-18 -2.81892565e-18 -2.81892565e-18 -2.81892565e-18
      -2.81892565e-18 -2.81892565e-18 -2.81892565e-18 -2.81892565e-18
      -2.81892565e-18 -2.81892565e-18 -2.81892565e-18 -2.81892565e-18
      -2.81892565e-18 -2.81892565e-18 -2.81892565e-18 -2.81892565e-18
      -2.81892565e-18 -2.81892565e-18 -2.81892565e-18 -2.81892565e-18
      -2.81892565e-18 -2.81892565e-18 -2.81892565e-18 -2.81892565e-18
      -2.81892565e-18 -2.81892565e-18 -2.81892565e-18 -2.81892565e-18
      -2.81892565e-18 -2.81892565e-18 -2.81892565e-18 -1.34815264e-03
      -1.47361789e-04 -3.84664210e-03 -2.24994239e-03 -1.31553842e-03
      -1.74927746e-03 -1.30531343e-03 1.23898499e-03 -7.49718281e-04
      1.27594708e-03 -2.13520951e-03 -2.81892565e-18 -2.81892565e-18
      -2.81892565e-18 -2.81892565e-18 -2.81892565e-18 -1.34815264e-03
      -2.57603987e-03 -5.47034340e-03 -2.50118086e-03 3.58391344e-03
      -1.65024516e-03 2.28732266e-03 -3.29407885e-05 -4.37999377e-03
      4.77871145e-05 1.49523839e-03 -2.81892565e-18 -2.81892565e-18
      -2.81892565e-18 -2.81892565e-18 -2.81892565e-18 -1.44833035e-03
      -8.52804747e-04 3.57040577e-03 -1.09309556e-04 3.46975098e-03
      -7.70016166e-04 -6.38139341e-03 -1.39249198e-03 -4.38833749e-03
      -6.22297591e-03 2.20899074e-03 -2.81892565e-18 -2.81892565e-18
      -2.81892565e-18 -2.81892565e-18 -2.81892565e-18 -2.81892565e-18
      -8.52804747e-04 3.52830510e-03 2.39371206e-03 2.61313142e-03
      3.01104225e-03 -1.41643058e-03 -2.65901466e-03 -5.73729537e-03
      -6.60960143e-03 -7.96270650e-03 -2.81892565e-18 -2.81892565e-18
      -2.81892565e-18 -2.81892565e-18 -2.81892565e-18 -2.81892565e-18
      1.64380262e-03 7.86981918e-03 5.34987450e-03 6.17437356e-04
      -4.81067225e-03 -5.41652087e-03 -4.05921089e-03 -2.01238948e-03
      -7.21288752e-03 -2.81892565e-18 -2.81892565e-18 -2.81892565e-18
      -2.81892565e-18 -2.81892565e-18 -2.81892565e-18 -2.81892565e-18
      5.90466568e-03 7.06954161e-03 1.57123106e-03 -2.71752913e-04
      -2.19096662e-03 1.54076226e-03 2.65554455e-03 -5.39448520e-04
      4.63742344e-03 -2.81892565e-18 -2.81892565e-18 -2.81892565e-18
      -2.81892565e-18 -2.81892565e-18 -2.81892565e-18 6.14645053e-03
      2.05341517e-03 -8.42565496e-04 7.87651807e-05 -4.30856925e-03
      1.36528653e-03 5.39442897e-03 -1.46450195e-03 1.13711075e-03
      4.89084655e-03 -2.81892565e-18 -2.81892565e-18 -2.81892565e-18
      -2.81892565e-18 -2.81892565e-18 3.32975830e-03 2.59044627e-03
      2.81155924e-03 -4.19754628e-03 9.82060446e-04 6.73235068e-03
      -3.44305532e-03 5.85139263e-04 1.41695153e-03 3.85907153e-03
      -2.83473055e-03 -1.34815264e-03 -2.81892565e-18 -2.81892565e-18
      -2.81892565e-18 -2.81892565e-18 3.42569570e-03 1.76682533e-03
      5.49940392e-04 8.47022820e-05 -2.81871902e-03 -2.46552750e-03
      4.31799702e-03 -1.76005589e-03 -5.47329383e-03 -1.45719422e-03
      -5.56060253e-03 -2.81892565e-18 -2.81892565e-18 -2.81892565e-18
      -2.81892565e-18 -2.81892565e-18 5.53181535e-03 4.88270493e-03
      -1.05430733e-03 5.73871890e-04 6.26016734e-03 -1.01160898e-03
      -4.19943361e-03 9.61729616e-04 -8.96390120e-04 6.59276906e-04
      2.10138969e-03 -2.81892565e-18 -2.81892565e-18 -2.81892565e-18
      -2.81892565e-18 -2.81892565e-18 6.81904959e-04 3.07908654e-03
      2.85945763e-03 -1.97523716e-03 7.53709814e-04 -1.40020507e-04
      -2.10784120e-03 -1.30598131e-03 2.59157340e-03 3.44954222e-03
      -2.81892565e-18 -2.81892565e-18 -2.81892565e-18 -2.81892565e-18
      -2.81892565e-18 -2.81892565e-18 -1.66740769e-03 -2.74970965e-03
      4.74482542e-04 8.94941215e-04 -4.55483299e-04 1.60517680e-04
      -9.73833783e-04 -4.86967241e-04 1.36836199e-03 -2.81892565e-18
      -2.81892565e-18 -2.81892565e-18 -2.81892565e-18 -2.81892565e-18
      -2.81892565e-18 -2.81892565e-18 -2.81892565e-18 -2.81892565e-18
      -2.81892565e-18 -7.77045847e-04 -2.31681345e-03 -1.53976760e-03
      -2.81892565e-18 -2.81892565e-18 -2.81892565e-18 -2.81892565e-18
      -2.81892565e-18 -2.81892565e-18 -2.81892565e-18 -2.81892565e-18
      -2.81892565e-18 -2.81892565e-18 -2.81892565e-18 -2.81892565e-18
      -2.81892565e-18 -2.81892565e-18 -2.81892565e-18 -2.81892565e-18
      -2.81892565e-18 -2.81892565e-18 -2.81892565e-18 -2.81892565e-18
      -2.81892565e-18 -2.81892565e-18 -2.81892565e-18 -2.81892565e-18</_></support_vectors>
  <uncompressed_sv_total>309</uncompressed_sv_total>
  <uncompressed_support_vectors>
    <_>
      255. 255. 255. 255. 255. 255. 255. 255. 255. 255. 255. 255. 255.
      255. 255. 255. 255. 255. 255. 255. 255. 255. 255. 255. 255. 255.
      255. 255. 255. 255. 255. 255. 255. 255. 255. 255. 255. 0. 0. 0. 0.
      0. 0. 255. 255. 255. 255. 255. 255. 255. 255. 255. 255. 0. 0. 255.
      255. 0. 0. 255. 255. 255. 255. 255. 255. 255. 255. 255. 255. 0. 0.
      255. 255. 0. 0. 255. 255. 255. 255. 255. 255. 255. 255. 255. 255.
      0. 0. 255. 255. 0. 0. 255. 255. 255. 255. 255. 255. 255. 255. 255.
      255. 0. 0. 255. 255. 0. 0. 255. 255. 255. 255. 255. 255. 255. 255.
      255. 255. 0. 0. 255. 255. 0. 0. 255. 255. 255. 255. 255. 255. 255.
      255. 255. 255. 0. 0. 255. 255. 0. 0. 255. 255. 255. 255. 255. 255.
      255. 255. 255. 255. 0. 0. 255. 255. 0. 0. 255. 255. 255. 255. 255.
      255. 255. 255. 255. 255. 0. 0. 255. 255. 0. 0. 255. 255. 255. 255.
      255. 255. 255. 255. 255. 255. 0. 0. 255. 255. 0. 0. 255. 255. 255.
      255. 255. 255. 255. 255. 255. 255. 0. 0. 255. 255. 0. 0. 255. 255.
      255. 255. 255. 255. 255. 255. 255. 255. 0. 0. 0. 0. 0. 0. 255.
      255. 255. 255. 255. 255. 255. 255. 255. 255. 255. 255. 255. 255.
      255. 255. 255. 255. 255. 255. 255. 255. 255. 255. 255. 255. 255.
      255. 255. 255. 255. 255. 255. 255. 255. 255. 255.</_>
    <_>
      255. 255. 255. 255. 255. 255. 255. 255. 255. 255. 255. 255. 255.
      255. 255. 255. 255. 255. 255. 255. 255. 255. 255. 255. 255. 255.
      255. 255. 255. 255. 255. 255. 255. 255. 255. 255. 255. 255. 255.
      0. 0. 0. 0. 0. 0. 255. 255. 255. 255. 255. 255. 255. 255. 255. 0.
      0. 0. 0. 0. 0. 0. 255. 255. 255. 255. 255. 255. 255. 255. 255. 0.
      0. 255. 255. 0. 0. 255. 255. 255. 255. 255. 255. 255. 255. 255.
      255. 0. 0. 255. 255. 0. 0. 255. 255. 255. 255. 255. 255. 255. 255.
      255. 0. 0. 255. 255. 255. 0. 0. 255. 255. 255. 255. 255. 255. 255.
      255. 255. 0. 0. 255. 255. 0. 0. 255. 255. 255. 255. 255. 255. 255.
      255. 255. 255. 0. 0. 255. 255. 0. 0. 255. 255. 255. 255. 255. 255.
      255. 255. 255. 0. 0. 255. 255. 255. 0. 0. 255. 255. 255. 255. 255.
      255. 255. 255. 255. 0. 0. 255. 255. 0. 0. 255. 255. 255. 255. 255.
      255. 255. 255. 255. 255. 0. 0. 255. 255. 0. 0. 255. 255. 255. 255.
      255. 255. 255. 255. 255. 0. 0. 0. 0. 0. 0. 0. 255. 255. 255. 255.
      255. 255. 255. 255. 255. 0. 0. 0. 0. 0. 0. 255. 255. 255. 255.
      255. 255. 255. 255. 255. 255. 255. 255. 255. 255. 255. 255. 255.
      255. 255. 255. 255. 255. 255. 255. 255. 255. 255. 255. 255. 255.
      255. 255. 255. 255. 255. 255. 255. 255. 255.</_>
    <_>
      255. 255. 255. 255. 255. 255. 255. 255. 255. 255. 255. 255. 255.
      255. 255. 255. 255. 255. 255. 255. 255. 255. 255. 255. 255. 255.
      255. 255. 255. 255. 255. 255. 255. 255. 255. 255. 255. 255. 255.
      255. 0. 0. 0. 0. 0. 255. 255. 255. 255. 255. 255. 255. 255. 255.
      255. 0. 255. 255. 0. 0. 0. 255. 255. 255. 255. 255. 255. 255. 255.
      255. 0. 255. 255. 255. 255. 0. 0. 255. 255. 255. 255. 255. 255.
      255. 255. 0. 0. 255. 255. 255. 255. 0. 0. 255. 255. 255. 255. 255.
      255. 255. 0. 0. 255. 255. 255. 255. 255. 0. 0. 255. 255. 255. 255.
      255. 255. 255. 0. 0. 255. 255. 255. 255. 255. 0. 0. 255. 255. 255.
      255. 255. 255. 0. 0. 255. 255. 255. 255. 255. 255. 0. 0. 255. 255.
      255. 255. 255. 255. 0. 0. 255. 255. 255. 255. 255. 0. 0. 255. 255.
      255. 255. 255. 255. 255. 0. 0. 255. 255. 255. 255. 255. 0. 255.
      255. 255. 255. 255. 255. 255. 255. 0. 0. 255. 255. 255. 255. 0. 0.
      255. 255. 255. 255. 255. 255. 255. 255. 0. 0. 0. 255. 255. 0. 0.
      255. 255. 255. 255. 255. 255. 255. 255. 255. 0. 0. 0. 0. 0. 255.
      255. 255. 255. 255. 255. 255. 255. 255. 255. 255. 255. 255. 255.
      255. 255. 255. 255. 255. 255. 255. 255. 255. 255. 255. 255. 255.
      255. 255. 255. 255. 255. 255. 255. 255. 255. 255. 255. 255. 255.</_>
    <_>
      255. 255. 255. 255. 255. 255. 255. 255. 255. 255. 255. 255. 255.
      255. 255. 255. 255. 255. 255. 255. 255. 255. 255. 255. 255. 255.
      255. 255. 255. 255. 255. 255. 255. 255. 255. 255. 255. 255. 255.
      255. 0. 0. 0. 0. 255. 255. 255. 255. 255. 255. 255. 255. 255. 255.
      0. 0. 0. 255. 0. 0. 0. 255. 255. 255. 255. 255. 255. 255. 255.
      255. 0. 255. 255. 255. 255. 0. 0. 255. 255. 255. 255. 255. 255.
      255. 255. 0. 0. 255. 255. 255. 255. 0. 0. 255. 255. 255. 255. 255.
      255. 255. 255. 0. 255. 255. 255. 255. 255. 0. 255. 255. 255. 255.
      255. 255. 255. 255. 0. 0. 255. 255. 255. 255. 0. 0. 255. 255. 255.
      255. 255. 255. 255. 255. 0. 0. 255. 255. 255. 255. 0. 0. 255. 255.
      255. 255. 255. 255. 255. 255. 0. 255. 255. 255. 255. 255. 0. 255.
      255. 255. 255. 255. 255. 255. 255. 0. 0. 255. 255. 255. 255. 0. 0.
      255. 255. 255. 255. 255. 255. 255. 255. 0. 0. 255. 255. 255. 255.
      0. 255. 255. 255. 255. 255. 255. 255. 255. 255. 0. 0. 0. 255. 0.
      0. 0. 255. 255. 255. 255. 255. 255. 255. 255. 255. 255. 0. 0. 0.
      0. 255. 255. 255. 255. 255. 255. 255. 255. 255. 255. 255. 255.
      255. 255. 255. 255. 255. 255. 255. 255. 255. 255. 255. 255. 255.
      255. 255. 255. 255. 255. 255. 255. 255. 255. 255. 255. 255. 255.
      255. 255.</_>
    <_>
      255. 255. 255. 255. 255. 255. 255. 255. 255. 255. 255. 255. 255.
      255. 255. 255. 255. 255. 255. 255. 255. 255. 255. 255. 255. 255.
      255. 255. 255. 255. 255. 255. 255. 255. 255. 255. 255. 255. 255.
      255. 255. 255. 0. 0. 0. 255. 255. 255. 255. 255. 255. 255. 255.
      255. 255. 255. 0. 0. 0. 0. 0. 0. 255. 255. 255. 255. 255. 255.
      255. 255. 255. 0. 0. 255. 255. 255. 255. 0. 255. 255. 255. 255.
      255. 255. 255. 255. 0. 255. 255. 255. 255. 255. 255. 0. 255. 255.
      255. 255. 255. 255. 255. 0. 255. 255. 255. 255. 255. 255. 255. 0.
      255. 255. 255. 255. 255. 255. 0. 0. 255. 255. 255. 255. 255. 255.
      255. 0. 255. 255. 255. 255. 255. 0. 0. 255. 255. 255. 255. 255.
      255. 255. 0. 255. 255. 255. 255. 255. 255. 0. 255. 255. 255. 255.
      255. 255. 255. 0. 0. 255. 255. 255. 255. 255. 0. 255. 255. 255.
      255. 255. 255. 255. 0. 0. 255. 255. 255. 255. 255. 255. 0. 255.
      255. 255. 255. 255. 0. 0. 0. 255. 255. 255. 255. 255. 255. 255. 0.
      255. 255. 255. 0. 0. 0. 255. 255. 255. 255. 255. 255. 255. 255.
      255. 0. 0. 0. 0. 0. 255. 255. 255. 255. 255. 255. 255. 255. 255.
      255. 255. 255. 255. 255. 255. 255. 255. 255. 255. 255. 255. 255.
      255. 255. 255. 255. 255. 255. 255. 255. 255. 255. 255. 255. 255.
      255. 255. 255. 255. 255. 255.</_>
    <_>
      255. 255. 255. 255. 255. 255. 255. 255. 255. 255. 255. 255. 255.
      255. 255. 255. 255. 255. 255. 255. 255. 255. 255. 255. 255. 255.
      255. 255. 255. 255. 255. 255. 255. 255. 255. 255. 255. 255. 255.
      255. 255. 255. 0. 0. 0. 255. 255. 255. 255. 255. 255. 255. 255.
      255. 255. 255. 0. 0. 0. 0. 0. 255. 255. 255. 255. 255. 255. 255.
      255. 255. 255. 0. 0. 0. 255. 255. 0. 0. 255. 255. 255. 255. 255.
      255. 255. 255. 0. 0. 255. 255. 255. 255. 255. 0. 255. 255. 255.
      255. 255. 255. 255. 0. 0. 255. 255. 255. 255. 255. 255. 0. 255.
      255. 255. 255. 255. 255. 0. 0. 255. 255. 255. 255. 255. 255. 0. 0.
      255. 255. 255. 255. 255. 255. 0. 255. 255. 255. 255. 255. 255.
      255. 0. 0. 255. 255. 255. 255. 255. 0. 255. 255. 255. 255. 255.
      255. 255. 0. 0. 255. 255. 255. 255. 255. 0. 0. 255. 255. 255. 255.
      255. 255. 0. 0. 255. 255. 255. 255. 255. 255. 0. 0. 255. 255. 255.
      255. 0. 0. 0. 255. 255. 255. 255. 255. 255. 255. 0. 0. 255. 0. 0.
      0. 0. 255. 255. 255. 255. 255. 255. 255. 255. 255. 255. 0. 0. 0.
      0. 255. 255. 255. 255. 255. 255. 255. 255. 255. 255. 255. 255.
      255. 255. 255. 255. 255. 255. 255. 255. 255. 255. 255. 255. 255.
      255. 255. 255. 255. 255. 255. 255. 255. 255. 255. 255. 255. 255.
      255. 255. 255.</_>
    <_>
      255. 255. 255. 255. 255. 255. 255. 255. 255. 255. 255. 255. 255.
      255. 255. 255. 255. 255. 255. 255. 255. 255. 255. 255. 255. 255.
      255. 255. 255. 255. 255. 255. 255. 255. 255. 255. 255. 0. 0. 0. 0.
      0. 0. 255. 255. 255. 255. 255. 255. 255. 255. 255. 0. 0. 255. 255.
      255. 255. 0. 0. 255. 255. 255. 255. 255. 255. 255. 0. 0. 255. 255.
      255. 255. 255. 255. 0. 0. 255. 255. 255. 255. 255. 255. 0. 255.
      255. 255. 255. 255. 255. 255. 255. 0. 255. 255. 255. 255. 255. 0.
      0. 255. 255. 255. 255. 255. 255. 255. 255. 0. 0. 255. 255. 255.
      255. 0. 0. 255. 255. 255. 255. 255. 255. 255. 255. 0. 0. 255. 255.
      255. 255. 0. 0. 255. 255. 255. 255. 255. 255. 255. 255. 0. 0. 255.
      255. 255. 255. 0. 0. 255. 255. 255. 255. 255. 255. 255. 255. 0. 0.
      255. 255. 255. 255. 255. 0. 255. 255. 255. 255. 255. 255. 255.
      255. 0. 255. 255. 255. 255. 255. 255. 0. 0. 255. 255. 255. 255.
      255. 255. 0. 0. 255. 255. 255. 255. 255. 255. 255. 0. 0. 255. 255.
      255. 255. 0. 0. 255. 255. 255. 255. 255. 255. 255. 255. 255. 0. 0.
      0. 0. 0. 0. 255. 255. 255. 255. 255. 255. 255. 255. 255. 255. 255.
      255. 255. 255. 255. 255. 255. 255. 255. 255. 255. 255. 255. 255.
      255. 255. 255. 255. 255. 255. 255. 255. 255. 255. 255. 255. 255.</_>
    <_>
      255. 255. 255. 255. 255. 255. 255. 255. 255. 255. 255. 255. 255.
      255. 255. 255. 255. 255. 255. 255. 255. 255. 255. 255. 255. 255.
      255. 255. 255. 255. 255. 255. 255. 255. 255. 255. 255. 0. 0. 0. 0.
      0. 0. 255. 255. 255. 255. 255. 255. 255. 255. 255. 0. 0. 0. 255.
      255. 0. 0. 0. 255. 255. 255. 255. 255. 255. 255. 0. 0. 0. 255.
      255. 255. 255. 255. 0. 0. 255. 255. 255. 255. 255. 255. 0. 0. 255.
      255. 255. 255. 255. 255. 0. 0. 255. 255. 255. 255. 255. 255. 0.
      255. 255. 255. 255. 255. 255. 255. 255. 0. 0. 255. 255. 255. 255.
      0. 0. 255. 255. 255. 255. 255. 255. 255. 255. 0. 0. 255. 255. 255.
      255. 0. 0. 255. 255. 255. 255. 255. 255. 255. 255. 0. 0. 255. 255.
      255. 255. 255. 0. 255. 255. 255. 255. 255. 255. 255. 255. 0. 0.
      255. 255. 255. 255. 255. 0. 0. 255. 255. 255. 255. 255. 255. 0. 0.
      255. 255. 255. 255. 255. 255. 0. 0. 255. 255. 255. 255. 255. 255.
      0. 0. 255. 255. 255. 255. 255. 255. 255. 0. 0. 0. 255. 255. 0. 0.
      0. 255. 255. 255. 255. 255. 255. 255. 255. 255. 0. 0. 0. 0. 0. 0.
      255. 255. 255. 255. 255. 255. 255. 255. 255. 255. 255. 255. 255.
      255. 255. 255. 255. 255. 255. 255. 255. 255. 255. 255. 255. 255.
      255. 255. 255. 255. 255. 255. 255. 255. 255. 255. 255.</_>
    <_>
      255. 255. 255. 255. 255. 255. 255. 255. 255. 255. 255. 255. 255.
      255. 255. 255. 255. 255. 255. 255. 255. 255. 255. 255. 255. 255.
      255. 255. 255. 255. 255. 255. 255. 255. 255. 255. 255. 255. 255.
      0. 0. 0. 0. 0. 0. 255. 255. 255. 255. 255. 255. 255. 255. 0. 0. 0.
      255. 255. 255. 0. 0. 255. 255. 255. 255. 255. 255. 255. 0. 0. 255.
      255. 255. 255. 255. 255. 0. 0. 255. 255. 255. 255. 255. 255. 0.
      255. 255. 255. 255. 255. 255. 255. 255. 0. 255. 255. 255. 255.
      255. 0. 255. 255. 255. 255. 255. 255. 255. 255. 255. 0. 255. 255.
      255. 255. 0. 0. 255. 255. 255. 255. 255. 255. 255. 255. 0. 0. 255.
      255. 255. 255. 0. 0. 255. 255. 255. 255. 255. 255. 255. 255. 0. 0.
      255. 255. 255. 255. 0. 255. 255. 255. 255. 255. 255. 255. 255.
      255. 0. 255. 255. 255. 255. 255. 0. 255. 255. 255. 255. 255. 255.
      255. 255. 0. 255. 255. 255. 255. 255. 255. 0. 0. 255. 255. 255.
      255. 255. 255. 0. 0. 255. 255. 255. 255. 255. 255. 0. 0. 0. 255.
      255. 255. 0. 0. 0. 255. 255. 255. 255. 255. 255. 255. 255. 0. 0.
      0. 0. 0. 0. 255. 255. 255. 255. 255. 255. 255. 255. 255. 255. 255.
      255. 255. 255. 255. 255. 255. 255. 255. 255. 255. 255. 255. 255.
      255. 255. 255. 255. 255. 255. 255. 255. 255. 255. 255. 255. 255.
      255. 255.</_>
    <_>
      255. 255. 255. 255. 255. 255. 255. 255. 255. 255. 255. 255. 255.
      255. 255. 255. 255. 255. 255. 255. 255. 255. 255. 255. 255. 255.
      255. 255. 255. 255. 255. 255. 255. 255. 255. 255. 255. 255. 255.
      0. 0. 255. 255. 255. 255. 255. 255. 255. 255. 255. 255. 255. 255.
      255. 0. 0. 255. 0. 255. 255. 255. 255. 255. 255. 255. 255. 255.
      255. 255. 255. 0. 255. 255. 0. 0. 255. 255. 255. 255. 255. 255.
      255. 255. 255. 255. 255. 0. 255. 255. 0. 0. 255. 255. 255. 255.
      255. 255. 255. 255. 255. 255. 255. 0. 255. 255. 0. 0. 255. 255.
      255. 255. 255. 255. 255. 255. 255. 255. 255. 0. 255. 255. 0. 0.
      255. 255. 255. 255. 255. 255. 255. 255. 255. 255. 255. 0. 255.
      255. 0. 0. 255. 255. 255. 255. 255. 255. 255. 255. 255. 255. 255.
      0. 255. 255. 0. 0. 255. 255. 255. 255. 255. 255. 255. 255. 255.
      255. 255. 0. 255. 255. 0. 0. 255. 255. 255. 255. 255. 255. 255.
      255. 255. 255. 255. 0. 255. 255. 0. 0. 255. 255. 255. 255. 255.
      255. 255. 255. 255. 255. 255. 0. 0. 255. 0. 255. 255. 255. 255.
      255. 255. 255. 255. 255. 255. 255. 255. 255. 0. 0. 255. 255. 255.
      255. 255. 255. 255. 255. 255. 255. 255. 255. 255. 255. 255. 255.
      255. 255. 255. 255. 255. 255. 255. 255. 255. 255. 255. 255. 255.
      255. 255. 255. 255. 255. 255. 255. 255. 255. 255.</_>
    <_>
      255. 255. 255. 255. 255. 255. 255. 255. 255. 255. 255. 255. 255.
      255. 255. 255. 255. 255. 255. 255. 255. 255. 255. 255. 255. 255.
      255. 255. 255. 255. 255. 255. 255. 255. 255. 255. 255. 255. 255.
      0. 255. 255. 255. 255. 255. 255. 255. 255. 255. 255. 255. 255.
      255. 255. 0. 255. 255. 0. 0. 255. 255. 255. 255. 255. 255. 255.
      255. 255. 255. 0. 255. 0. 0. 0. 0. 255. 255. 255. 255. 255. 255.
      255. 255. 255. 0. 0. 255. 0. 0. 0. 0. 0. 255. 255. 255. 255. 255.
      255. 255. 255. 0. 255. 255. 255. 255. 255. 255. 0. 255. 255. 255.
      255. 255. 255. 255. 255. 0. 255. 255. 255. 255. 255. 255. 0. 255.
      255. 255. 255. 255. 255. 255. 255. 0. 255. 255. 255. 255. 255.
      255. 0. 255. 255. 255. 255. 255. 255. 255. 255. 0. 255. 255. 255.
      255. 255. 255. 0. 255. 255. 255. 255. 255. 255. 255. 255. 0. 0.
      255. 255. 255. 255. 255. 0. 255. 255. 255. 255. 255. 255. 255.
      255. 0. 0. 255. 255. 255. 255. 0. 255. 255. 255. 255. 255. 255.
      255. 255. 255. 255. 0. 255. 255. 255. 255. 0. 255. 255. 255. 255.
      255. 255. 255. 255. 255. 255. 255. 0. 255. 255. 255. 255. 255.
      255. 255. 255. 255. 255. 255. 255. 255. 255. 255. 255. 255. 255.
      255. 255. 255. 255. 255. 255. 255. 255. 255. 255. 255. 255. 255.
      255. 255. 255. 255. 255. 255. 255. 255. 255. 255.</_>
    <_>
      255. 255. 255. 255. 255. 255. 255. 255. 255. 255. 255. 255. 255.
      255. 255. 255. 255. 255. 255. 255. 255. 255. 255. 255. 255. 255.
      255. 255. 255. 255. 255. 255. 255. 255. 255. 255. 255. 255. 255.
      255. 255. 0. 255. 255. 255. 255. 255. 255. 255. 255. 255. 255.
      255. 255. 255. 0. 0. 255. 0. 0. 255. 255. 255. 255. 255. 255. 255.
      255. 255. 255. 0. 0. 0. 0. 0. 0. 0. 255. 255. 255. 255. 255. 255.
      255. 255. 0. 0. 255. 0. 0. 0. 0. 0. 255. 255. 255. 255. 255. 255.
      255. 0. 0. 255. 255. 255. 255. 255. 0. 0. 255. 255. 255. 255. 255.
      255. 255. 0. 0. 255. 255. 255. 255. 255. 0. 0. 255. 255. 255. 255.
      255. 255. 0. 0. 255. 255. 255. 255. 255. 255. 0. 255. 255. 255.
      255. 255. 255. 255. 0. 0. 255. 255. 255. 255. 255. 0. 0. 255. 255.
      255. 255. 255. 255. 255. 0. 0. 255. 255. 255. 255. 255. 0. 255.
      255. 255. 255. 255. 255. 255. 255. 0. 0. 255. 255. 255. 255. 0.
      255. 255. 255. 255. 255. 255. 255. 255. 255. 0. 0. 255. 255. 255.
      0. 255. 255. 255. 255. 255. 255. 255. 255. 255. 255. 255. 0. 0.
      255. 0. 255. 255. 255. 255. 255. 255. 255. 255. 255. 255. 255.
      255. 255. 255. 255. 255. 255. 255. 255. 255. 255. 255. 255. 255.
      255. 255. 255. 255. 255. 255. 255. 255. 255. 255. 255. 255. 255.
      255. 255. 255.</_>
    <_>
      255. 255. 255. 255. 255. 255. 255. 255. 255. 255. 255. 255. 255.
      255. 255. 255. 255. 255. 255. 255. 255. 255. 255. 255. 255. 255.
      255. 255. 255. 255. 255. 255. 255. 255. 255. 255. 255. 255. 255.
      255. 0. 0. 0. 0. 255. 255. 255. 255. 255. 255. 255. 255. 255. 255.
      255. 0. 0. 255. 0. 0. 255. 255. 255. 255. 255. 255. 255. 255. 255.
      255. 0. 0. 255. 255. 0. 0. 255. 255. 255. 255. 255. 255. 255. 255.
      255. 255. 0. 0. 255. 255. 0. 0. 255. 255. 255. 255. 255. 255. 255.
      255. 255. 0. 0. 255. 255. 255. 0. 0. 255. 255. 255. 255. 255. 255.
      255. 255. 255. 0. 0. 255. 255. 0. 0. 255. 255. 255. 255. 255. 255.
      255. 255. 255. 255. 0. 255. 255. 255. 0. 0. 255. 255. 255. 255.
      255. 255. 255. 255. 255. 0. 0. 255. 255. 255. 0. 0. 255. 255. 255.
      255. 255. 255. 255. 255. 255. 0. 0. 255. 255. 0. 0. 255. 255. 255.
      255. 255. 255. 255. 255. 255. 255. 0. 0. 255. 255. 0. 0. 255. 255.
      255. 255. 255. 255. 255. 255. 255. 255. 0. 0. 255. 0. 0. 255. 255.
      255. 255. 255. 255. 255. 255. 255. 255. 255. 0. 0. 0. 0. 255. 255.
      255. 255. 255. 255. 255. 255. 255. 255. 255. 255. 255. 255. 255.
      255. 255. 255. 255. 255. 255. 255. 255. 255. 255. 255. 255. 255.
      255. 255. 255. 255. 255. 255. 255. 255. 255. 255. 255. 255.</_>
    <_>
      255. 255. 255. 255. 255. 255. 255. 255. 255. 255. 255. 255. 255.
      255. 255. 255. 255. 255. 255. 255. 255. 255. 255. 255. 255. 255.
      255. 255. 255. 255. 255. 255. 255. 255. 255. 255. 255. 255. 255.
      255. 0. 0. 0. 0. 255. 255. 255. 255. 255. 255. 255. 255. 255. 255.
      0. 0. 255. 255. 255. 0. 0. 255. 255. 255. 255. 255. 255. 255. 255.
      255. 0. 255. 255. 255. 255. 0. 0. 255. 255. 255. 255. 255. 255.
      255. 255. 0. 0. 255. 255. 255. 255. 0. 0. 255. 255. 255. 255. 255.
      255. 255. 255. 0. 255. 255. 255. 255. 255. 0. 0. 255. 255. 255.
      255. 255. 255. 255. 0. 0. 255. 255. 255. 255. 255. 0. 255. 255.
      255. 255. 255. 255. 255. 255. 0. 255. 255. 255. 255. 255. 0. 0.
      255. 255. 255. 255. 255. 255. 255. 255. 0. 255. 255. 255. 255.
      255. 0. 0. 255. 255. 255. 255. 255. 255. 255. 0. 0. 255. 255. 255.
      255. 255. 0. 255. 255. 255. 255. 255. 255. 255. 255. 0. 0. 255.
      255. 255. 255. 0. 255. 255. 255. 255. 255. 255. 255. 255. 255. 0.
      0. 255. 255. 255. 0. 0. 255. 255. 255. 255. 255. 255. 255. 255.
      255. 255. 0. 0. 0. 0. 255. 255. 255. 255. 255. 255. 255. 255. 255.
      255. 255. 255. 255. 255. 255. 255. 255. 255. 255. 255. 255. 255.
      255. 255. 255. 255. 255. 255. 255. 255. 255. 255. 255. 255. 255.
      255. 255. 255. 255. 255.</_>
    <_>
      255. 255. 255. 255. 255. 255. 255. 255. 255. 255. 255. 255. 255.
      255. 255. 255. 255. 255. 255. 255. 255. 255. 255. 255. 255. 255.
      255. 255. 255. 255. 255. 255. 255. 255. 255. 255. 255. 255. 255.
      255. 0. 0. 0. 0. 255. 255. 255. 255. 255. 255. 255. 255. 255. 255.
      255. 0. 0. 255. 255. 0. 255. 255. 255. 255. 255. 255. 255. 255.
      255. 255. 0. 0. 255. 255. 255. 0. 255. 255. 255. 255. 255. 255.
      255. 255. 255. 0. 0. 255. 255. 255. 255. 0. 255. 255. 255. 255.
      255. 255. 255. 255. 255. 0. 255. 255. 255. 255. 255. 0. 255. 255.
      255. 255. 255. 255. 255. 255. 255. 0. 255. 255. 255. 255. 0. 0.
      255. 255. 255. 255. 255. 255. 255. 255. 0. 0. 255. 255. 255. 255.
      0. 0. 255. 255. 255. 255. 255. 255. 255. 255. 0. 255. 255. 255.
      255. 255. 0. 255. 255. 255. 255. 255. 255. 255. 255. 255. 0. 255.
      255. 255. 255. 0. 0. 255. 255. 255. 255. 255. 255. 255. 255. 255.
      0. 255. 255. 255. 255. 0. 255. 255. 255. 255. 255. 255. 255. 255.
      255. 255. 0. 255. 255. 255. 0. 255. 255. 255. 255. 255. 255. 255.
      255. 255. 255. 255. 0. 0. 0. 0. 255. 255. 255. 255. 255. 255. 255.
      255. 255. 255. 255. 255. 255. 255. 255. 255. 255. 255. 255. 255.
      255. 255. 255. 255. 255. 255. 255. 255. 255. 255. 255. 255. 255.
      255. 255. 255. 255. 255. 255. 255.</_>
    <_>
      255. 255. 255. 255. 255. 255. 255. 255. 255. 255. 255. 255. 255.
      255. 255. 255. 255. 255. 255. 255. 255. 255. 255. 255. 255. 255.
      255. 255. 255. 255. 255. 255. 255. 255. 255. 255. 255. 255. 255.
      255. 255. 255. 255. 255. 255. 255. 255. 255. 255. 255. 255. 255.
      255. 255. 255. 0. 255. 255. 255. 255. 255. 0. 255. 255. 255. 255.
      255. 255. 255. 255. 0. 255. 255. 255. 255. 255. 255. 0. 255. 255.
      255. 255. 255. 255. 255. 0. 0. 255. 255. 255. 255. 255. 0. 0. 255.
      255. 255. 255. 255. 255. 0. 0. 255. 255. 255. 255. 255. 255. 0. 0.
      255. 255. 255. 255. 255. 0. 0. 255. 255. 255. 255. 255. 255. 255.
      0. 255. 255. 255. 255. 255. 255. 0. 0. 255. 255. 255. 255. 255.
      255. 0. 0. 255. 255. 255. 255. 255. 0. 0. 255. 255. 255. 255. 255.
      255. 255. 0. 255. 255. 255. 255. 255. 255. 0. 0. 255. 255. 255.
      255. 255. 255. 0. 255. 255. 255. 255. 255. 255. 255. 0. 0. 255.
      255. 255. 255. 255. 0. 0. 255. 255. 255. 255. 255. 255. 255. 255.
      0. 255. 255. 255. 255. 0. 255. 255. 255. 255. 255. 255. 255. 255.
      255. 255. 255. 255. 255. 255. 255. 255. 255. 255. 255. 255. 255.
      255. 255. 255. 255. 255. 255. 255. 255. 255. 255. 255. 255. 255.
      255. 255. 255. 255. 255. 255. 255. 255. 255. 255. 255. 255. 255.
      255. 255. 255. 255. 255. 255. 255. 255.</_>
    <_>
      255. 255. 255. 255. 255. 255. 255. 255. 255. 255. 255. 255. 255.
      255. 255. 255. 255. 255. 255. 255. 255. 255. 255. 255. 255. 255.
      255. 255. 255. 255. 255. 255. 255. 255. 255. 255. 255. 255. 0. 0.
      0. 0. 0. 255. 255. 255. 255. 255. 255. 255. 255. 255. 255. 0. 0.
      255. 255. 255. 0. 255. 255. 255. 255. 255. 255. 255. 255. 255.
      255. 0. 255. 255. 255. 255. 0. 0. 255. 255. 255. 255. 255. 255.
      255. 255. 0. 0. 255. 255. 255. 255. 255. 0. 255. 255. 255. 255.
      255. 255. 255. 255. 0. 255. 255. 255. 255. 255. 255. 0. 255. 255.
      255. 255. 255. 255. 255. 255. 0. 255. 255. 255. 255. 255. 255. 0.
      255. 255. 255. 255. 255. 255. 255. 255. 0. 255. 255. 255. 255.
      255. 255. 0. 255. 255. 255. 255. 255. 255. 255. 255. 0. 255. 255.
      255. 255. 255. 255. 0. 255. 255. 255. 255. 255. 255. 255. 255. 0.
      255. 255. 255. 255. 255. 255. 0. 255. 255. 255. 255. 255. 255.
      255. 255. 0. 0. 255. 255. 255. 255. 0. 0. 255. 255. 255. 255. 255.
      255. 255. 255. 255. 0. 255. 255. 255. 0. 0. 255. 255. 255. 255.
      255. 255. 255. 255. 255. 255. 255. 0. 0. 0. 0. 255. 255. 255. 255.
      255. 255. 255. 255. 255. 255. 255. 255. 255. 255. 255. 255. 255.
      255. 255. 255. 255. 255. 255. 255. 255. 255. 255. 255. 255. 255.
      255. 255. 255. 255. 255. 255. 255. 255.</_>
    <_>
      255. 255. 255. 255. 255. 255. 255. 255. 255. 255. 255. 255. 255.
      255. 255. 255. 255. 255. 255. 255. 255. 255. 255. 255. 255. 255.
      255. 255. 255. 255. 255. 255. 255. 255. 255. 255. 255. 255. 255.
      255. 0. 0. 255. 255. 255. 255. 255. 255. 255. 255. 255. 255. 255.
      0. 255. 255. 255. 0. 0. 255. 255. 255. 255. 255. 255. 255. 255.
      255. 0. 0. 255. 255. 255. 255. 0. 0. 255. 255. 255. 255. 255. 255.
      255. 255. 0. 255. 255. 255. 255. 255. 0. 0. 255. 255. 255. 255.
      255. 255. 255. 255. 0. 255. 255. 255. 255. 255. 255. 0. 255. 255.
      255. 255. 255. 255. 255. 255. 0. 255. 255. 255. 255. 255. 255. 0.
      255. 255. 255. 255. 255. 255. 255. 255. 0. 255. 255. 255. 255.
      255. 255. 0. 255. 255. 255. 255. 255. 255. 255. 255. 0. 255. 255.
      255. 255. 255. 255. 0. 255. 255. 255. 255. 255. 255. 255. 255. 0.
      0. 255. 255. 255. 255. 255. 0. 255. 255. 255. 255. 255. 255. 255.
      255. 0. 0. 255. 255. 255. 255. 0. 0. 255. 255. 255. 255. 255. 255.
      255. 255. 255. 0. 255. 255. 255. 255. 0. 255. 255. 255. 255. 255.
      255. 255. 255. 255. 255. 0. 0. 255. 255. 0. 255. 255. 255. 255.
      255. 255. 255. 255. 255. 255. 255. 255. 255. 255. 255. 255. 255.
      255. 255. 255. 255. 255. 255. 255. 255. 255. 255. 255. 255. 255.
      255. 255. 255. 255. 255. 255. 255. 255.</_>
    <_>
      255. 255. 255. 255. 255. 255. 255. 255. 255. 255. 255. 255. 255.
      255. 255. 255. 255. 255. 255. 255. 255. 255. 255. 255. 255. 255.
      255. 255. 255. 255. 255. 255. 255. 255. 255. 255. 255. 255. 255.
      255. 255. 255. 0. 0. 255. 255. 255. 255. 255. 255. 255. 255. 255.
      255. 255. 255. 255. 255. 255. 0. 0. 255. 255. 255. 255. 255. 255.
      255. 255. 255. 0. 255. 255. 255. 255. 0. 0. 255. 255. 255. 255.
      255. 255. 255. 255. 0. 255. 255. 255. 255. 255. 0. 0. 255. 255.
      255. 255. 255. 255. 255. 0. 0. 255. 255. 255. 255. 255. 0. 0. 255.
      255. 255. 255. 255. 255. 255. 0. 255. 255. 255. 255. 255. 255. 0.
      255. 255. 255. 255. 255. 255. 255. 255. 0. 255. 255. 255. 255.
      255. 255. 0. 255. 255. 255. 255. 255. 255. 255. 0. 0. 255. 255.
      255. 255. 255. 0. 0. 255. 255. 255. 255. 255. 255. 255. 0. 0. 255.
      255. 255. 255. 255. 0. 255. 255. 255. 255. 255. 255. 255. 255. 0.
      0. 255. 255. 255. 255. 0. 255. 255. 255. 255. 255. 255. 255. 255.
      255. 0. 0. 255. 255. 255. 255. 255. 255. 255. 255. 255. 255. 255.
      255. 255. 255. 255. 0. 0. 255. 255. 255. 255. 255. 255. 255. 255.
      255. 255. 255. 255. 255. 255. 255. 255. 255. 255. 255. 255. 255.
      255. 255. 255. 255. 255. 255. 255. 255. 255. 255. 255. 255. 255.
      255. 255. 255. 255. 255. 255. 255. 255.</_>
    <_>
      255. 255. 255. 255. 255. 255. 255. 255. 255. 255. 255. 255. 255.
      255. 255. 255. 255. 255. 255. 255. 255. 255. 255. 255. 255. 255.
      255. 255. 255. 255. 255. 255. 255. 255. 255. 255. 255. 255. 255.
      255. 255. 0. 0. 255. 255. 255. 255. 255. 255. 255. 255. 255. 255.
      255. 255. 0. 0. 0. 0. 0. 255. 255. 255. 255. 255. 255. 255. 255.
      255. 255. 255. 0. 0. 255. 0. 0. 255. 255. 255. 255. 255. 255. 255.
      255. 255. 255. 0. 0. 255. 0. 0. 0. 255. 255. 255. 255. 255. 255.
      255. 255. 255. 255. 0. 0. 255. 0. 0. 255. 255. 255. 255. 255. 255.
      255. 255. 255. 255. 0. 0. 0. 255. 0. 0. 255. 255. 255. 255. 255.
      255. 255. 255. 255. 255. 0. 0. 255. 0. 0. 0. 255. 255. 255. 255.
      255. 255. 255. 255. 255. 255. 0. 0. 255. 0. 0. 255. 255. 255. 255.
      255. 255. 255. 255. 255. 255. 0. 0. 0. 255. 0. 0. 255. 255. 255.
      255. 255. 255. 255. 255. 255. 255. 0. 0. 255. 0. 0. 255. 255. 255.
      255. 255. 255. 255. 255. 255. 255. 255. 0. 0. 0. 0. 0. 255. 255.
      255. 255. 255. 255. 255. 255. 255. 255. 255. 255. 0. 0. 0. 255.
      255. 255. 255. 255. 255. 255. 255. 255. 255. 255. 255. 255. 255.
      255. 255. 255. 255. 255. 255. 255. 255. 255. 255. 255. 255. 255.
      255. 255. 255. 255. 255. 255. 255. 255. 255. 255. 255. 255. 255.</_>
    <_>
      255. 255. 255. 255. 255. 255. 255. 255. 255. 255. 255. 255. 255.
      255. 255. 255. 255. 255. 255. 255. 255. 255. 255. 255. 255. 255.
      255. 255. 255. 255. 255. 255. 255. 255. 255. 255. 255. 255. 255.
      255. 0. 0. 0. 0. 255. 255. 255. 255. 255. 255. 255. 255. 255. 255.
      255. 0. 0. 255. 255. 0. 255. 255. 255. 255. 255. 255. 255. 255.
      255. 255. 0. 0. 255. 255. 255. 0. 255. 255. 255. 255. 255. 255.
      255. 255. 255. 255. 0. 255. 255. 255. 255. 0. 255. 255. 255. 255.
      255. 255. 255. 255. 255. 0. 255. 255. 255. 255. 255. 0. 255. 255.
      255. 255. 255. 255. 255. 255. 255. 0. 255. 255. 255. 255. 255. 0.
      255. 255. 255. 255. 255. 255. 255. 255. 0. 0. 255. 255. 255. 255.
      0. 0. 255. 255. 255. 255. 255. 255. 255. 255. 0. 255. 255. 255.
      255. 255. 0. 255. 255. 255. 255. 255. 255. 255. 255. 255. 0. 255.
      255. 255. 255. 0. 0. 255. 255. 255. 255. 255. 255. 255. 255. 255.
      0. 255. 255. 255. 255. 0. 255. 255. 255. 255. 255. 255. 255. 255.
      255. 255. 0. 255. 255. 255. 0. 255. 255. 255. 255. 255. 255. 255.
      255. 255. 255. 255. 0. 0. 0. 0. 255. 255. 255. 255. 255. 255. 255.
      255. 255. 255. 255. 255. 255. 255. 255. 255. 255. 255. 255. 255.
      255. 255. 255. 255. 255. 255. 255. 255. 255. 255. 255. 255. 255.
      255. 255. 255. 255. 255. 255. 255.</_>
    <_>
      255. 255. 255. 255. 255. 255. 255. 255. 255. 255. 255. 255. 255.
      255. 255. 255. 255. 255. 255. 255. 255. 255. 255. 255. 255. 255.
      255. 255. 255. 255. 255. 255. 255. 255. 255. 255. 255. 255. 0. 0.
      0. 0. 255. 255. 255. 255. 255. 255. 255. 255. 255. 255. 255. 0. 0.
      0. 0. 0. 0. 255. 255. 255. 255. 255. 255. 255. 255. 255. 255. 0.
      0. 0. 0. 0. 0. 255. 255. 255. 255. 255. 255. 255. 255. 255. 255.
      0. 0. 0. 0. 0. 0. 255. 255. 255. 255. 255. 255. 255. 255. 255.
      255. 0. 0. 0. 0. 0. 0. 255. 255. 255. 255. 255. 255. 255. 255.
      255. 255. 0. 0. 0. 0. 0. 0. 255. 255. 255. 255. 255. 255. 255.
      255. 255. 255. 0. 0. 0. 0. 0. 0. 255. 255. 255. 255. 255. 255.
      255. 255. 255. 255. 0. 0. 0. 0. 0. 0. 255. 255. 255. 255. 255.
      255. 255. 255. 255. 255. 0. 0. 0. 0. 0. 0. 255. 255. 255. 255.
      255. 255. 255. 255. 255. 255. 0. 0. 0. 0. 0. 0. 255. 255. 255.
      255. 255. 255. 255. 255. 255. 255. 0. 0. 0. 0. 0. 0. 255. 255.
      255. 255. 255. 255. 255. 255. 255. 255. 255. 0. 0. 0. 0. 255. 255.
      255. 255. 255. 255. 255. 255. 255. 255. 255. 255. 255. 255. 255.
      255. 255. 255. 255. 255. 255. 255. 255. 255. 255. 255. 255. 255.
      255. 255. 255. 255. 255. 255. 255. 255. 255. 255.</_>
    <_>
      255. 255. 255. 255. 255. 255. 255. 255. 255. 255. 255. 255. 255.
      255. 255. 255. 255. 255. 255. 255. 255. 255. 255. 255. 255. 255.
      255. 255. 255. 255. 255. 255. 255. 255. 255. 255. 255. 0. 0. 0. 0.
      0. 0. 0. 0. 255. 255. 255. 255. 255. 255. 255. 255. 0. 0. 255.
      255. 255. 255. 0. 0. 255. 255. 255. 255. 255. 255. 255. 255. 0. 0.
      255. 255. 255. 255. 0. 0. 255. 255. 255. 255. 255. 255. 255. 0. 0.
      255. 255. 255. 255. 0. 0. 255. 255. 255. 255. 255. 255. 255. 255.
      0. 0. 255. 255. 255. 255. 0. 0. 255. 255. 255. 255. 255. 255. 255.
      255. 0. 0. 255. 255. 255. 255. 0. 0. 255. 255. 255. 255. 255. 255.
      255. 255. 0. 0. 255. 255. 255. 255. 0. 0. 255. 255. 255. 255. 255.
      255. 255. 255. 0. 0. 255. 255. 255. 255. 0. 0. 255. 255. 255. 255.
      255. 255. 255. 0. 0. 255. 255. 255. 255. 255. 0. 0. 255. 255. 255.
      255. 255. 255. 255. 0. 0. 255. 255. 255. 255. 0. 0. 255. 255. 255.
      255. 255. 255. 255. 255. 0. 0. 255. 255. 255. 255. 0. 0. 255. 255.
      255. 255. 255. 255. 255. 255. 0. 0. 0. 0. 0. 0. 0. 0. 255. 255.
      255. 255. 255. 255. 255. 255. 255. 255. 255. 255. 255. 255. 255.
      255. 255. 255. 255. 255. 255. 255. 255. 255. 255. 255. 255. 255.
      255. 255. 255. 255. 255. 255. 255. 255. 255.</_>
    <_>
      255. 255. 255. 255. 255. 255. 255. 255. 255. 255. 255. 255. 255.
      255. 255. 255. 255. 255. 255. 255. 255. 255. 255. 255. 255. 255.
      255. 255. 255. 255. 255. 255. 255. 255. 255. 255. 255. 255. 255.
      255. 0. 0. 0. 255. 255. 255. 255. 255. 255. 255. 255. 255. 255.
      255. 255. 0. 0. 255. 0. 0. 255. 255. 255. 255. 255. 255. 255. 255.
      255. 255. 255. 0. 255. 255. 0. 0. 255. 255. 255. 255. 255. 255.
      255. 255. 255. 255. 0. 0. 255. 255. 0. 255. 255. 255. 255. 255.
      255. 255. 255. 255. 255. 255. 0. 0. 255. 0. 0. 255. 255. 255. 255.
      255. 255. 255. 255. 255. 255. 0. 0. 255. 255. 0. 0. 255. 255. 255.
      255. 255. 255. 255. 255. 255. 255. 0. 0. 255. 255. 0. 0. 255. 255.
      255. 255. 255. 255. 255. 255. 255. 255. 0. 0. 255. 0. 0. 255. 255.
      255. 255. 255. 255. 255. 255. 255. 255. 255. 0. 255. 255. 0. 0.
      255. 255. 255. 255. 255. 255. 255. 255. 255. 255. 0. 0. 255. 255.
      0. 255. 255. 255. 255. 255. 255. 255. 255. 255. 255. 255. 0. 0.
      255. 0. 0. 255. 255. 255. 255. 255. 255. 255. 255. 255. 255. 255.
      255. 0. 0. 0. 255. 255. 255. 255. 255. 255. 255. 255. 255. 255.
      255. 255. 255. 255. 255. 255. 255. 255. 255. 255. 255. 255. 255.
      255. 255. 255. 255. 255. 255. 255. 255. 255. 255. 255. 255. 255.
      255. 255. 255. 255.</_>
    <_>
      255. 255. 255. 255. 255. 255. 255. 255. 255. 255. 255. 255. 255.
      255. 255. 255. 255. 255. 255. 255. 255. 255. 255. 255. 255. 255.
      255. 255. 255. 255. 255. 255. 255. 255. 255. 255. 255. 255. 255.
      255. 255. 255. 255. 255. 255. 255. 255. 255. 255. 255. 255. 255.
      255. 255. 255. 255. 255. 0. 255. 255. 255. 255. 255. 255. 255.
      255. 255. 255. 255. 255. 255. 255. 0. 255. 255. 255. 255. 255.
      255. 255. 255. 255. 255. 255. 255. 255. 0. 0. 255. 255. 255. 255.
      255. 255. 255. 255. 255. 255. 255. 255. 255. 0. 0. 255. 255. 255.
      255. 255. 255. 255. 255. 255. 255. 255. 255. 255. 0. 0. 255. 255.
      255. 255. 255. 255. 255. 255. 255. 255. 255. 255. 255. 0. 0. 255.
      255. 255. 255. 255. 255. 255. 255. 255. 255. 255. 255. 255. 0. 0.
      255. 255. 255. 255. 255. 255. 255. 255. 255. 255. 255. 255. 255.
      255. 0. 255. 255. 255. 255. 255. 255. 255. 255. 255. 255. 255.
      255. 255. 255. 255. 0. 255. 255. 255. 255. 255. 255. 255. 255.
      255. 255. 255. 255. 255. 255. 255. 255. 255. 255. 255. 255. 255.
      255. 255. 255. 255. 255. 255. 255. 255. 255. 255. 255. 255. 255.
      255. 255. 255. 255. 255. 255. 255. 255. 255. 255. 255. 255. 255.
      255. 255. 255. 255. 255. 255. 255. 255. 255. 255. 255. 255. 255.
      255. 255. 255. 255. 255. 255. 255. 255. 255. 255. 255. 255. 255.
      255. 255. 255. 255.</_>
    <_>
      255. 255. 255. 255. 255. 255. 255. 255. 255. 255. 255. 255. 255.
      255. 255. 255. 255. 255. 255. 255. 255. 255. 255. 255. 255. 255.
      255. 255. 255. 255. 255. 255. 255. 255. 255. 255. 255. 255. 255.
      255. 255. 255. 255. 255. 255. 255. 255. 255. 255. 255. 255. 255.
      255. 255. 255. 255. 255. 255. 255. 255. 255. 255. 255. 255. 255.
      255. 255. 255. 255. 255. 255. 255. 255. 255. 0. 255. 255. 255.
      255. 255. 255. 255. 255. 255. 255. 255. 255. 255. 0. 0. 255. 255.
      255. 255. 255. 255. 255. 255. 255. 255. 255. 255. 0. 0. 255. 255.
      255. 255. 255. 255. 255. 255. 255. 255. 255. 255. 255. 0. 0. 255.
      255. 255. 255. 255. 255. 255. 255. 255. 255. 255. 255. 255. 0. 0.
      255. 255. 255. 255. 255. 255. 255. 255. 255. 255. 255. 255. 255.
      0. 255. 255. 255. 255. 255. 255. 255. 255. 255. 255. 255. 255.
      255. 255. 0. 255. 255. 255. 255. 255. 255. 255. 255. 255. 255.
      255. 255. 255. 255. 255. 0. 255. 255. 255. 255. 255. 255. 255.
      255. 255. 255. 255. 255. 255. 255. 255. 255. 255. 255. 255. 255.
      255. 255. 255. 255. 255. 255. 255. 255. 255. 255. 255. 255. 255.
      255. 255. 255. 255. 255. 255. 255. 255. 255. 255. 255. 255. 255.
      255. 255. 255. 255. 255. 255. 255. 255. 255. 255. 255. 255. 255.
      255. 255. 255. 255. 255. 255. 255. 255. 255. 255. 255. 255. 255.
      255. 255. 255. 255. 255.</_>
    <_>
      255. 255. 255. 255. 255. 255. 255. 255. 255. 255. 255. 255. 255.
      255. 255. 255. 255. 255. 255. 255. 255. 255. 255. 255. 255. 255.
      255. 255. 255. 255. 255. 255. 255. 255. 255. 255. 255. 255. 255.
      255. 0. 0. 0. 0. 255. 255. 255. 255. 255. 255. 255. 255. 255. 255.
      255. 0. 255. 255. 255. 0. 255. 255. 255. 255. 255. 255. 255. 255.
      255. 255. 0. 0. 255. 255. 255. 0. 255. 255. 255. 255. 255. 255.
      255. 255. 255. 0. 0. 255. 255. 255. 255. 0. 255. 255. 255. 255.
      255. 255. 255. 255. 255. 0. 255. 255. 255. 255. 255. 0. 255. 255.
      255. 255. 255. 255. 255. 255. 0. 0. 255. 255. 255. 255. 0. 0. 255.
      255. 255. 255. 255. 255. 255. 255. 0. 0. 255. 255. 255. 255. 0.
      255. 255. 255. 255. 255. 255. 255. 255. 255. 0. 255. 255. 255.
      255. 255. 0. 255. 255. 255. 255. 255. 255. 255. 255. 255. 0. 255.
      255. 255. 255. 0. 0. 255. 255. 255. 255. 255. 255. 255. 255. 255.
      0. 255. 255. 255. 0. 0. 255. 255. 255. 255. 255. 255. 255. 255.
      255. 255. 0. 255. 255. 255. 0. 255. 255. 255. 255. 255. 255. 255.
      255. 255. 255. 255. 0. 0. 0. 0. 255. 255. 255. 255. 255. 255. 255.
      255. 255. 255. 255. 255. 255. 255. 255. 255. 255. 255. 255. 255.
      255. 255. 255. 255. 255. 255. 255. 255. 255. 255. 255. 255. 255.
      255. 255. 255. 255. 255. 255. 255.</_>
    <_>
      255. 255. 255. 255. 255. 255. 255. 255. 255. 255. 255. 255. 255.
      255. 255. 255. 255. 255. 255. 255. 255. 255. 255. 255. 255. 255.
      255. 255. 255. 255. 255. 255. 255. 255. 255. 255. 255. 255. 255.
      255. 255. 255. 0. 0. 255. 255. 255. 255. 255. 255. 255. 255. 255.
      255. 255. 0. 0. 0. 0. 0. 0. 255. 255. 255. 255. 255. 255. 255.
      255. 255. 255. 0. 0. 255. 0. 0. 0. 255. 255. 255. 255. 255. 255.
      255. 255. 255. 0. 0. 255. 255. 255. 0. 255. 255. 255. 255. 255.
      255. 255. 255. 255. 0. 0. 255. 255. 255. 255. 0. 255. 255. 255.
      255. 255. 255. 255. 255. 255. 0. 0. 255. 255. 255. 0. 0. 255. 255.
      255. 255. 255. 255. 255. 255. 0. 0. 255. 255. 255. 255. 0. 255.
      255. 255. 255. 255. 255. 255. 255. 255. 0. 0. 255. 255. 255. 0. 0.
      255. 255. 255. 255. 255. 255. 255. 255. 255. 0. 0. 255. 255. 0. 0.
      255. 255. 255. 255. 255. 255. 255. 255. 255. 255. 0. 0. 255. 0. 0.
      255. 255. 255. 255. 255. 255. 255. 255. 255. 255. 0. 0. 0. 0. 0.
      255. 255. 255. 255. 255. 255. 255. 255. 255. 255. 255. 255. 0. 0.
      0. 255. 255. 255. 255. 255. 255. 255. 255. 255. 255. 255. 255.
      255. 255. 255. 255. 255. 255. 255. 255. 255. 255. 255. 255. 255.
      255. 255. 255. 255. 255. 255. 255. 255. 255. 255. 255. 255. 255.
      255. 255. 255.</_>
    <_>
      255. 255. 255. 255. 255. 255. 255. 255. 255. 255. 255. 255. 255.
      255. 255. 255. 255. 255. 255. 255. 255. 255. 255. 255. 255. 255.
      255. 255. 255. 255. 255. 255. 255. 255. 255. 255. 255. 255. 0. 0.
      0. 0. 255. 255. 255. 255. 255. 255. 255. 255. 255. 255. 255. 0. 0.
      255. 255. 0. 0. 255. 255. 255. 255. 255. 255. 255. 255. 255. 255.
      0. 255. 255. 255. 255. 0. 255. 255. 255. 255. 255. 255. 255. 255.
      255. 255. 0. 255. 255. 255. 255. 0. 255. 255. 255. 255. 255. 255.
      255. 255. 255. 255. 0. 255. 255. 255. 255. 0. 255. 255. 255. 255.
      255. 255. 255. 255. 255. 255. 0. 255. 255. 255. 255. 0. 255. 255.
      255. 255. 255. 255. 255. 255. 255. 255. 0. 255. 255. 255. 255. 0.
      255. 255. 255. 255. 255. 255. 255. 255. 255. 255. 0. 255. 255.
      255. 255. 0. 255. 255. 255. 255. 255. 255. 255. 255. 255. 255. 0.
      255. 255. 255. 255. 0. 255. 255. 255. 255. 255. 255. 255. 255.
      255. 255. 0. 255. 255. 255. 255. 0. 255. 255. 255. 255. 255. 255.
      255. 255. 255. 255. 0. 0. 255. 255. 0. 0. 255. 255. 255. 255. 255.
      255. 255. 255. 255. 255. 255. 0. 0. 0. 0. 255. 255. 255. 255. 255.
      255. 255. 255. 255. 255. 255. 255. 255. 0. 0. 255. 255. 255. 255.
      255. 255. 255. 255. 255. 255. 255. 255. 255. 255. 255. 255. 255.
      255. 255. 255. 255. 255. 255.</_>
    <_>
      255. 255. 255. 255. 255. 255. 255. 255. 255. 255. 255. 255. 255.
      255. 255. 255. 255. 255. 255. 255. 255. 255. 255. 255. 255. 255.
      255. 255. 255. 255. 255. 255. 255. 255. 255. 255. 255. 255. 0. 0.
      0. 0. 255. 255. 255. 255. 255. 255. 255. 255. 255. 255. 255. 255.
      0. 255. 255. 0. 0. 255. 255. 255. 255. 255. 255. 255. 255. 255.
      255. 0. 255. 255. 255. 255. 0. 255. 255. 255. 255. 255. 255. 255.
      255. 255. 255. 0. 255. 255. 255. 255. 0. 255. 255. 255. 255. 255.
      255. 255. 255. 255. 255. 0. 255. 255. 255. 255. 0. 255. 255. 255.
      255. 255. 255. 255. 255. 255. 255. 0. 255. 255. 255. 255. 0. 255.
      255. 255. 255. 255. 255. 255. 255. 255. 255. 0. 255. 255. 255.
      255. 0. 255. 255. 255. 255. 255. 255. 255. 255. 255. 255. 0. 255.
      255. 255. 255. 0. 255. 255. 255. 255. 255. 255. 255. 255. 255.
      255. 0. 255. 255. 255. 255. 0. 255. 255. 255. 255. 255. 255. 255.
      255. 255. 255. 0. 255. 255. 255. 255. 0. 255. 255. 255. 255. 255.
      255. 255. 255. 255. 255. 0. 0. 255. 255. 0. 0. 255. 255. 255. 255.
      255. 255. 255. 255. 255. 255. 255. 0. 0. 0. 0. 255. 255. 255. 255.
      255. 255. 255. 255. 255. 255. 255. 255. 255. 255. 0. 255. 255.
      255. 255. 255. 255. 255. 255. 255. 255. 255. 255. 255. 255. 255.
      255. 255. 255. 255. 255. 255. 255. 255.</_>
    <_>
      255. 255. 255. 255. 255. 255. 255. 255. 255. 255. 255. 255. 255.
      255. 255. 255. 255. 255. 255. 255. 255. 255. 255. 255. 255. 255.
      255. 255. 255. 255. 255. 255. 255. 255. 255. 255. 255. 255. 255.
      255. 255. 255. 0. 0. 255. 255. 255. 255. 255. 255. 255. 255. 255.
      255. 255. 255. 0. 0. 255. 0. 0. 255. 255. 255. 255. 255. 255. 255.
      255. 255. 255. 0. 255. 255. 255. 0. 0. 255. 255. 255. 255. 255.
      255. 255. 255. 255. 0. 255. 255. 255. 255. 0. 0. 255. 255. 255.
      255. 255. 255. 255. 255. 0. 0. 255. 255. 255. 255. 0. 255. 255.
      255. 255. 255. 255. 255. 255. 255. 0. 255. 255. 255. 255. 0. 0.
      255. 255. 255. 255. 255. 255. 255. 255. 0. 0. 255. 255. 255. 255.
      0. 255. 255. 255. 255. 255. 255. 255. 255. 255. 0. 255. 255. 255.
      255. 0. 0. 255. 255. 255. 255. 255. 255. 255. 255. 0. 0. 255. 255.
      255. 255. 0. 255. 255. 255. 255. 255. 255. 255. 255. 255. 0. 0.
      255. 255. 255. 0. 255. 255. 255. 255. 255. 255. 255. 255. 255.
      255. 0. 0. 255. 255. 0. 255. 255. 255. 255. 255. 255. 255. 255.
      255. 255. 255. 255. 255. 0. 255. 255. 255. 255. 255. 255. 255.
      255. 255. 255. 255. 255. 255. 255. 255. 255. 255. 255. 255. 255.
      255. 255. 255. 255. 255. 255. 255. 255. 255. 255. 255. 255. 255.
      255. 255. 255. 255. 255. 255. 255. 255. 255.</_>
    <_>
      255. 255. 255. 255. 255. 255. 255. 255. 255. 255. 255. 255. 255.
      255. 255. 255. 255. 255. 255. 255. 255. 255. 255. 255. 255. 255.
      255. 255. 255. 255. 255. 255. 255. 255. 255. 255. 255. 255. 255.
      255. 255. 255. 0. 255. 255. 255. 255. 255. 255. 255. 255. 255.
      255. 255. 255. 255. 0. 0. 255. 0. 0. 255. 255. 255. 255. 255. 255.
      255. 255. 255. 255. 0. 255. 255. 255. 0. 0. 255. 255. 255. 255.
      255. 255. 255. 255. 255. 0. 255. 255. 255. 255. 0. 0. 255. 255.
      255. 255. 255. 255. 255. 255. 0. 0. 255. 255. 255. 255. 0. 255.
      255. 255. 255. 255. 255. 255. 255. 255. 0. 255. 255. 255. 255. 0.
      0. 255. 255. 255. 255. 255. 255. 255. 255. 0. 0. 255. 255. 255.
      255. 0. 255. 255. 255. 255. 255. 255. 255. 255. 255. 0. 255. 255.
      255. 255. 0. 0. 255. 255. 255. 255. 255. 255. 255. 255. 0. 0. 255.
      255. 255. 255. 0. 255. 255. 255. 255. 255. 255. 255. 255. 255. 0.
      0. 255. 255. 255. 0. 255. 255. 255. 255. 255. 255. 255. 255. 255.
      255. 0. 0. 255. 0. 0. 255. 255. 255. 255. 255. 255. 255. 255. 255.
      255. 255. 255. 255. 0. 255. 255. 255. 255. 255. 255. 255. 255.
      255. 255. 255. 255. 255. 255. 255. 255. 255. 255. 255. 255. 255.
      255. 255. 255. 255. 255. 255. 255. 255. 255. 255. 255. 255. 255.
      255. 255. 255. 255. 255. 255. 255. 255.</_>
    <_>
      255. 255. 255. 255. 255. 255. 255. 255. 255. 255. 255. 255. 255.
      255. 255. 255. 255. 255. 255. 255. 255. 255. 255. 255. 255. 255.
      255. 255. 255. 255. 255. 255. 255. 255. 255. 255. 255. 255. 255.
      255. 255. 255. 0. 0. 0. 255. 255. 255. 255. 255. 255. 255. 255.
      255. 255. 255. 0. 0. 0. 0. 0. 0. 255. 255. 255. 255. 255. 255.
      255. 255. 0. 0. 0. 255. 255. 255. 0. 0. 255. 255. 255. 255. 255.
      255. 255. 0. 0. 255. 255. 255. 255. 255. 0. 0. 255. 255. 255. 255.
      255. 255. 0. 0. 255. 255. 255. 255. 255. 255. 0. 0. 255. 255. 255.
      255. 255. 255. 0. 255. 255. 255. 255. 255. 255. 0. 0. 255. 255.
      255. 255. 255. 255. 0. 0. 255. 255. 255. 255. 255. 0. 0. 255. 255.
      255. 255. 255. 255. 0. 0. 255. 255. 255. 255. 255. 255. 0. 0. 255.
      255. 255. 255. 255. 255. 0. 0. 255. 255. 255. 255. 255. 0. 0. 255.
      255. 255. 255. 255. 255. 255. 0. 0. 255. 255. 255. 0. 0. 0. 255.
      255. 255. 255. 255. 255. 255. 255. 0. 0. 0. 0. 0. 0. 255. 255.
      255. 255. 255. 255. 255. 255. 255. 255. 255. 0. 0. 0. 0. 255. 255.
      255. 255. 255. 255. 255. 255. 255. 255. 255. 255. 255. 255. 255.
      255. 255. 255. 255. 255. 255. 255. 255. 255. 255. 255. 255. 255.
      255. 255. 255. 255. 255. 255. 255. 255. 255. 255. 255. 255. 255.</_>
    <_>
      255. 255. 255. 255. 255. 255. 255. 255. 255. 255. 255. 255. 255.
      255. 255. 255. 255. 255. 255. 255. 255. 255. 255. 255. 255. 255.
      255. 255. 255. 255. 255. 255. 255. 255. 255. 255. 255. 255. 0. 0.
      0. 0. 255. 255. 255. 255. 255. 255. 255. 255. 255. 255. 255. 255.
      0. 0. 0. 0. 255. 255. 255. 255. 255. 255. 255. 255. 255. 255. 255.
      255. 0. 0. 0. 0. 255. 255. 255. 255. 255. 255. 255. 255. 255. 255.
      255. 255. 0. 0. 0. 0. 255. 255. 255. 255. 255. 255. 255. 255. 255.
      255. 255. 255. 0. 0. 0. 0. 255. 255. 255. 255. 255. 255. 255. 255.
      255. 255. 255. 255. 0. 0. 0. 0. 255. 255. 255. 255. 255. 255. 255.
      255. 255. 255. 255. 255. 0. 0. 0. 0. 255. 255. 255. 255. 255. 255.
      255. 255. 255. 255. 255. 255. 0. 0. 0. 0. 255. 255. 255. 255. 255.
      255. 255. 255. 255. 255. 255. 255. 0. 0. 0. 0. 255. 255. 255. 255.
      255. 255. 255. 255. 255. 255. 255. 255. 0. 0. 0. 0. 255. 255. 255.
      255. 255. 255. 255. 255. 255. 255. 255. 255. 0. 0. 0. 0. 255. 255.
      255. 255. 255. 255. 255. 255. 255. 255. 255. 255. 0. 0. 0. 0. 255.
      255. 255. 255. 255. 255. 255. 255. 255. 255. 255. 255. 255. 255.
      255. 255. 255. 255. 255. 255. 255. 255. 255. 255. 255. 255. 255.
      255. 255. 255. 255. 255. 255. 255. 255. 255. 255. 255.</_>
    <_>
      255. 255. 255. 255. 255. 255. 255. 255. 255. 255. 255. 255. 255.
      255. 255. 255. 255. 255. 255. 255. 255. 255. 255. 255. 255. 255.
      255. 255. 255. 255. 255. 255. 255. 255. 255. 255. 255. 255. 255.
      255. 0. 0. 0. 255. 255. 255. 255. 255. 255. 255. 255. 255. 255.
      255. 255. 0. 0. 255. 0. 0. 255. 255. 255. 255. 255. 255. 255. 255.
      255. 255. 255. 0. 0. 0. 0. 255. 255. 255. 255. 255. 255. 255. 255.
      255. 255. 255. 255. 0. 0. 0. 0. 255. 255. 255. 255. 255. 255. 255.
      255. 255. 255. 255. 0. 0. 255. 0. 0. 255. 255. 255. 255. 255. 255.
      255. 255. 255. 255. 255. 0. 0. 0. 0. 255. 255. 255. 255. 255. 255.
      255. 255. 255. 255. 255. 255. 0. 0. 0. 0. 255. 255. 255. 255. 255.
      255. 255. 255. 255. 255. 255. 0. 0. 255. 0. 0. 255. 255. 255. 255.
      255. 255. 255. 255. 255. 255. 255. 0. 0. 0. 0. 255. 255. 255. 255.
      255. 255. 255. 255. 255. 255. 255. 255. 0. 0. 0. 0. 255. 255. 255.
      255. 255. 255. 255. 255. 255. 255. 255. 0. 0. 255. 0. 0. 255. 255.
      255. 255. 255. 255. 255. 255. 255. 255. 255. 255. 0. 0. 0. 255.
      255. 255. 255. 255. 255. 255. 255. 255. 255. 255. 255. 255. 255.
      255. 255. 255. 255. 255. 255. 255. 255. 255. 255. 255. 255. 255.
      255. 255. 255. 255. 255. 255. 255. 255. 255. 255. 255. 255. 255.</_>
    <_>
      255. 255. 255. 255. 255. 255. 255. 255. 255. 255. 255. 255. 255.
      255. 255. 255. 255. 255. 255. 255. 255. 255. 255. 255. 255. 255.
      255. 255. 255. 255. 255. 255. 255. 255. 255. 255. 255. 255. 255.
      255. 0. 0. 0. 0. 255. 255. 255. 255. 255. 255. 255. 255. 255. 255.
      255. 0. 0. 255. 0. 0. 255. 255. 255. 255. 255. 255. 255. 255. 255.
      255. 255. 0. 0. 255. 0. 0. 255. 255. 255. 255. 255. 255. 255. 255.
      255. 255. 255. 0. 255. 0. 0. 255. 255. 255. 255. 255. 255. 255.
      255. 255. 255. 255. 0. 0. 255. 0. 0. 255. 255. 255. 255. 255. 255.
      255. 255. 255. 255. 255. 0. 0. 255. 0. 255. 255. 255. 255. 255.
      255. 255. 255. 255. 255. 255. 255. 0. 255. 0. 0. 255. 255. 255.
      255. 255. 255. 255. 255. 255. 255. 255. 0. 0. 255. 0. 0. 255. 255.
      255. 255. 255. 255. 255. 255. 255. 255. 255. 0. 0. 255. 0. 255.
      255. 255. 255. 255. 255. 255. 255. 255. 255. 255. 255. 0. 255. 0.
      0. 255. 255. 255. 255. 255. 255. 255. 255. 255. 255. 255. 0. 0.
      255. 0. 0. 255. 255. 255. 255. 255. 255. 255. 255. 255. 255. 255.
      255. 0. 0. 0. 255. 255. 255. 255. 255. 255. 255. 255. 255. 255.
      255. 255. 255. 255. 255. 255. 255. 255. 255. 255. 255. 255. 255.
      255. 255. 255. 255. 255. 255. 255. 255. 255. 255. 255. 255. 255.
      255. 255. 255. 255.</_>
    <_>
      255. 255. 255. 255. 255. 255. 255. 255. 255. 255. 255. 255. 255.
      255. 255. 255. 255. 255. 255. 255. 255. 255. 255. 255. 255. 255.
      255. 255. 255. 255. 255. 255. 255. 255. 255. 255. 255. 255. 255.
      255. 0. 0. 0. 0. 255. 255. 255. 255. 255. 255. 255. 255. 255. 255.
      255. 0. 0. 255. 0. 0. 255. 255. 255. 255. 255. 255. 255. 255. 255.
      255. 255. 0. 0. 0. 0. 0. 255. 255. 255. 255. 255. 255. 255. 255.
      255. 255. 255. 0. 0. 0. 0. 255. 255. 255. 255. 255. 255. 255. 255.
      255. 255. 255. 0. 0. 255. 0. 0. 255. 255. 255. 255. 255. 255. 255.
      255. 255. 255. 255. 0. 0. 0. 0. 0. 255. 255. 255. 255. 255. 255.
      255. 255. 255. 255. 255. 0. 0. 0. 0. 255. 255. 255. 255. 255. 255.
      255. 255. 255. 255. 255. 0. 0. 255. 0. 0. 255. 255. 255. 255. 255.
      255. 255. 255. 255. 255. 255. 0. 0. 0. 0. 0. 255. 255. 255. 255.
      255. 255. 255. 255. 255. 255. 0. 0. 0. 0. 0. 255. 255. 255. 255.
      255. 255. 255. 255. 255. 255. 255. 0. 0. 255. 0. 0. 255. 255. 255.
      255. 255. 255. 255. 255. 255. 255. 255. 0. 0. 0. 0. 255. 255. 255.
      255. 255. 255. 255. 255. 255. 255. 255. 255. 255. 255. 255. 255.
      255. 255. 255. 255. 255. 255. 255. 255. 255. 255. 255. 255. 255.
      255. 255. 255. 255. 255. 255. 255. 255. 255. 255. 255.</_>
    <_>
      255. 255. 255. 255. 255. 255. 255. 255. 255. 255. 255. 255. 255.
      255. 255. 255. 255. 255. 255. 255. 255. 255. 255. 255. 255. 255.
      255. 255. 255. 255. 255. 255. 255. 255. 255. 255. 255. 255. 0. 0.
      0. 0. 255. 255. 255. 255. 255. 255. 255. 255. 255. 255. 255. 0. 0.
      255. 255. 0. 0. 255. 255. 255. 255. 255. 255. 255. 255. 255. 255.
      0. 0. 255. 255. 0. 0. 255. 255. 255. 255. 255. 255. 255. 255. 255.
      255. 0. 0. 255. 255. 0. 0. 255. 255. 255. 255. 255. 255. 255. 255.
      255. 255. 0. 255. 255. 255. 255. 0. 255. 255. 255. 255. 255. 255.
      255. 255. 255. 255. 0. 255. 255. 255. 255. 0. 255. 255. 255. 255.
      255. 255. 255. 255. 255. 255. 0. 255. 255. 255. 255. 0. 255. 255.
      255. 255. 255. 255. 255. 255. 255. 255. 0. 255. 255. 255. 255. 0.
      255. 255. 255. 255. 255. 255. 255. 255. 255. 255. 0. 0. 255. 255.
      0. 0. 255. 255. 255. 255. 255. 255. 255. 255. 255. 255. 0. 0. 255.
      255. 0. 0. 255. 255. 255. 255. 255. 255. 255. 255. 255. 255. 0. 0.
      255. 255. 0. 0. 255. 255. 255. 255. 255. 255. 255. 255. 255. 255.
      255. 0. 0. 0. 0. 255. 255. 255. 255. 255. 255. 255. 255. 255. 255.
      255. 255. 255. 255. 255. 255. 255. 255. 255. 255. 255. 255. 255.
      255. 255. 255. 255. 255. 255. 255. 255. 255. 255. 255. 255. 255.
      255. 255.</_>
    <_>
      255. 255. 255. 255. 255. 255. 255. 255. 255. 255. 255. 255. 255.
      255. 255. 255. 255. 255. 255. 255. 255. 255. 255. 255. 255. 255.
      255. 255. 255. 255. 255. 255. 255. 255. 255. 255. 0. 0. 0. 0. 0.
      0. 0. 0. 255. 255. 255. 255. 255. 255. 255. 255. 0. 0. 255. 255.
      255. 255. 0. 0. 255. 255. 255. 255. 255. 255. 255. 255. 0. 0. 255.
      255. 255. 255. 0. 0. 255. 255. 255. 255. 255. 255. 255. 255. 0. 0.
      255. 255. 255. 255. 0. 0. 255. 255. 255. 255. 255. 255. 255. 255.
      0. 0. 255. 255. 255. 255. 0. 0. 255. 255. 255. 255. 255. 255. 255.
      255. 0. 0. 255. 255. 255. 255. 0. 0. 255. 255. 255. 255. 255. 255.
      255. 255. 0. 0. 255. 255. 255. 255. 0. 0. 255. 255. 255. 255. 255.
      255. 255. 255. 0. 0. 255. 255. 255. 255. 0. 0. 255. 255. 255. 255.
      255. 255. 255. 255. 0. 0. 255. 255. 255. 255. 0. 0. 255. 255. 255.
      255. 255. 255. 255. 255. 0. 0. 255. 255. 255. 255. 0. 0. 255. 255.
      255. 255. 255. 255. 255. 255. 0. 0. 255. 255. 255. 255. 0. 0. 255.
      255. 255. 255. 255. 255. 255. 255. 0. 0. 0. 0. 0. 0. 0. 0. 255.
      255. 255. 255. 255. 255. 255. 255. 255. 255. 255. 255. 255. 255.
      255. 255. 255. 255. 255. 255. 255. 255. 255. 255. 255. 255. 255.
      255. 255. 255. 255. 255. 255. 255. 255. 255.</_>
    <_>
      255. 255. 255. 255. 255. 255. 255. 255. 255. 255. 255. 255. 255.
      255. 255. 255. 255. 255. 255. 255. 255. 255. 255. 255. 255. 255.
      255. 255. 255. 255. 255. 255. 255. 255. 255. 255. 0. 0. 0. 0. 0.
      0. 0. 0. 255. 255. 255. 255. 255. 255. 255. 255. 0. 0. 0. 0. 0. 0.
      0. 0. 255. 255. 255. 255. 255. 255. 255. 255. 0. 0. 255. 255. 255.
      255. 0. 0. 255. 255. 255. 255. 255. 255. 255. 255. 0. 0. 255. 255.
      255. 255. 0. 0. 255. 255. 255. 255. 255. 255. 255. 255. 0. 0. 255.
      255. 255. 255. 0. 0. 255. 255. 255. 255. 255. 255. 255. 255. 0. 0.
      255. 255. 255. 255. 0. 0. 255. 255. 255. 255. 255. 255. 255. 255.
      0. 0. 255. 255. 255. 255. 0. 0. 255. 255. 255. 255. 255. 255. 255.
      255. 0. 0. 255. 255. 255. 255. 0. 0. 255. 255. 255. 255. 255. 255.
      255. 255. 0. 0. 255. 255. 255. 255. 0. 0. 255. 255. 255. 255. 255.
      255. 255. 255. 0. 0. 255. 255. 255. 255. 0. 0. 255. 255. 255. 255.
      255. 255. 255. 255. 0. 0. 0. 0. 0. 0. 0. 0. 255. 255. 255. 255.
      255. 255. 255. 255. 0. 0. 0. 0. 0. 0. 0. 0. 255. 255. 255. 255.
      255. 255. 255. 255. 255. 255. 255. 255. 255. 255. 255. 255. 255.
      255. 255. 255. 255. 255. 255. 255. 255. 255. 255. 255. 255. 255.
      255. 255. 255. 255. 255. 255.</_>
    <_>
      255. 255. 255. 255. 255. 255. 255. 255. 255. 255. 255. 255. 255.
      255. 255. 255. 255. 255. 255. 255. 255. 255. 255. 255. 255. 255.
      255. 255. 255. 255. 255. 255. 255. 255. 255. 255. 255. 255. 0. 0.
      0. 0. 0. 0. 0. 255. 255. 255. 255. 255. 255. 255. 255. 255. 0. 0.
      0. 0. 0. 0. 0. 0. 255. 255. 255. 255. 255. 255. 255. 0. 0. 255.
      255. 255. 255. 0. 0. 255. 255. 255. 255. 255. 255. 255. 255. 0. 0.
      255. 255. 255. 255. 0. 0. 255. 255. 255. 255. 255. 255. 255. 255.
      0. 0. 255. 255. 255. 255. 0. 0. 255. 255. 255. 255. 255. 255. 255.
      0. 0. 255. 255. 255. 255. 0. 0. 255. 255. 255. 255. 255. 255. 255.
      255. 0. 0. 255. 255. 255. 255. 0. 0. 255. 255. 255. 255. 255. 255.
      255. 255. 0. 0. 255. 255. 255. 255. 0. 0. 255. 255. 255. 255. 255.
      255. 255. 0. 0. 255. 255. 255. 255. 0. 0. 255. 255. 255. 255. 255.
      255. 255. 255. 0. 0. 255. 255. 255. 255. 0. 0. 255. 255. 255. 255.
      255. 255. 255. 255. 0. 0. 0. 0. 0. 0. 0. 0. 255. 255. 255. 255.
      255. 255. 255. 255. 0. 0. 0. 0. 0. 0. 0. 255. 255. 255. 255. 255.
      255. 255. 255. 255. 255. 255. 255. 255. 255. 255. 255. 255. 255.
      255. 255. 255. 255. 255. 255. 255. 255. 255. 255. 255. 255. 255.
      255. 255. 255. 255. 255. 255. 255.</_>
    <_>
      255. 255. 255. 255. 255. 255. 255. 255. 255. 255. 255. 255. 255.
      255. 255. 255. 255. 255. 255. 255. 255. 255. 255. 255. 255. 255.
      255. 255. 255. 255. 255. 255. 255. 255. 255. 255. 255. 255. 255.
      0. 0. 255. 255. 255. 255. 255. 255. 255. 255. 255. 255. 255. 255.
      255. 0. 0. 0. 0. 255. 255. 255. 255. 255. 255. 255. 255. 255. 255.
      255. 255. 0. 0. 0. 0. 255. 255. 255. 255. 255. 255. 255. 255. 255.
      255. 255. 255. 0. 0. 0. 0. 255. 255. 255. 255. 255. 255. 255. 255.
      255. 255. 255. 255. 0. 0. 0. 0. 255. 255. 255. 255. 255. 255. 255.
      255. 255. 255. 255. 255. 0. 0. 0. 0. 255. 255. 255. 255. 255. 255.
      255. 255. 255. 255. 255. 255. 0. 0. 0. 0. 255. 255. 255. 255. 255.
      255. 255. 255. 255. 255. 255. 255. 0. 0. 0. 0. 255. 255. 255. 255.
      255. 255. 255. 255. 255. 255. 255. 255. 0. 0. 0. 0. 255. 255. 255.
      255. 255. 255. 255. 255. 255. 255. 255. 255. 0. 0. 0. 0. 255. 255.
      255. 255. 255. 255. 255. 255. 255. 255. 255. 255. 0. 0. 0. 0. 255.
      255. 255. 255. 255. 255. 255. 255. 255. 255. 255. 255. 0. 0. 0. 0.
      255. 255. 255. 255. 255. 255. 255. 255. 255. 255. 255. 255. 255.
      255. 255. 255. 255. 255. 255. 255. 255. 255. 255. 255. 255. 255.
      255. 255. 255. 255. 255. 255. 255. 255. 255. 255. 255. 255.</_>
    <_>
      255. 255. 255. 255. 255. 255. 255. 255. 255. 255. 255. 255. 255.
      255. 255. 255. 255. 255. 255. 255. 255. 255. 255. 255. 255. 255.
      255. 255. 255. 255. 255. 255. 255. 255. 255. 255. 255. 255. 255.
      0. 0. 255. 255. 255. 255. 255. 255. 255. 255. 255. 255. 255. 255.
      255. 0. 0. 0. 0. 255. 255. 255. 255. 255. 255. 255. 255. 255. 255.
      255. 255. 0. 0. 0. 0. 255. 255. 255. 255. 255. 255. 255. 255. 255.
      255. 255. 255. 0. 0. 0. 0. 255. 255. 255. 255. 255. 255. 255. 255.
      255. 255. 255. 255. 0. 0. 0. 0. 255. 255. 255. 255. 255. 255. 255.
      255. 255. 255. 255. 255. 0. 0. 0. 0. 255. 255. 255. 255. 255. 255.
      255. 255. 255. 255. 255. 255. 0. 0. 0. 0. 255. 255. 255. 255. 255.
      255. 255. 255. 255. 255. 255. 255. 0. 0. 0. 0. 255. 255. 255. 255.
      255. 255. 255. 255. 255. 255. 255. 255. 0. 0. 0. 0. 255. 255. 255.
      255. 255. 255. 255. 255. 255. 255. 255. 255. 0. 0. 0. 0. 255. 255.
      255. 255. 255. 255. 255. 255. 255. 255. 255. 255. 0. 0. 0. 0. 255.
      255. 255. 255. 255. 255. 255. 255. 255. 255. 255. 255. 255. 0. 0.
      255. 255. 255. 255. 255. 255. 255. 255. 255. 255. 255. 255. 255.
      255. 255. 255. 255. 255. 255. 255. 255. 255. 255. 255. 255. 255.
      255. 255. 255. 255. 255. 255. 255. 255. 255. 255. 255. 255. 255.</_>
    <_>
      255. 255. 255. 255. 255. 255. 255. 255. 255. 255. 255. 255. 255.
      255. 255. 255. 255. 255. 255. 255. 255. 255. 255. 255. 255. 255.
      255. 255. 255. 255. 255. 255. 255. 255. 255. 255. 255. 255. 255.
      255. 255. 0. 0. 255. 255. 255. 255. 255. 255. 255. 255. 255. 255.
      255. 255. 255. 0. 0. 0. 255. 255. 255. 255. 255. 255. 255. 255.
      255. 255. 255. 255. 0. 0. 0. 0. 255. 255. 255. 255. 255. 255. 255.
      255. 255. 255. 255. 255. 0. 0. 0. 0. 255. 255. 255. 255. 255. 255.
      255. 255. 255. 255. 255. 0. 0. 0. 0. 0. 255. 255. 255. 255. 255.
      255. 255. 255. 255. 255. 255. 0. 0. 0. 0. 255. 255. 255. 255. 255.
      255. 255. 255. 255. 255. 255. 255. 0. 0. 0. 0. 255. 255. 255. 255.
      255. 255. 255. 255. 255. 255. 255. 0. 0. 0. 0. 0. 255. 255. 255.
      255. 255. 255. 255. 255. 255. 255. 255. 0. 0. 0. 0. 255. 255. 255.
      255. 255. 255. 255. 255. 255. 255. 255. 255. 0. 0. 0. 0. 255. 255.
      255. 255. 255. 255. 255. 255. 255. 255. 255. 255. 0. 0. 0. 255.
      255. 255. 255. 255. 255. 255. 255. 255. 255. 255. 255. 255. 0. 0.
      255. 255. 255. 255. 255. 255. 255. 255. 255. 255. 255. 255. 255.
      255. 255. 255. 255. 255. 255. 255. 255. 255. 255. 255. 255. 255.
      255. 255. 255. 255. 255. 255. 255. 255. 255. 255. 255. 255. 255.
      255. 255.</_>
    <_>
      255. 255. 255. 255. 255. 255. 255. 255. 255. 255. 255. 255. 255.
      255. 255. 255. 255. 255. 255. 255. 255. 255. 255. 255. 255. 255.
      255. 255. 255. 255. 255. 255. 255. 255. 255. 255. 255. 255. 255.
      255. 255. 255. 0. 0. 0. 0. 255. 255. 255. 255. 255. 255. 255. 255.
      255. 255. 0. 0. 255. 255. 255. 0. 255. 255. 255. 255. 255. 255.
      255. 255. 255. 0. 0. 255. 255. 255. 255. 0. 255. 255. 255. 255.
      255. 255. 255. 0. 0. 0. 255. 255. 255. 255. 0. 255. 255. 255. 255.
      255. 255. 255. 0. 0. 0. 255. 255. 255. 255. 255. 0. 255. 255. 255.
      255. 255. 255. 255. 0. 0. 255. 255. 255. 255. 255. 0. 255. 255.
      255. 255. 255. 255. 255. 0. 0. 255. 255. 255. 255. 255. 0. 255.
      255. 255. 255. 255. 255. 255. 0. 0. 255. 255. 255. 255. 255. 0. 0.
      255. 255. 255. 255. 255. 255. 255. 0. 0. 255. 255. 255. 255. 0. 0.
      255. 255. 255. 255. 255. 255. 255. 255. 0. 255. 255. 255. 255. 0.
      0. 255. 255. 255. 255. 255. 255. 255. 255. 255. 0. 255. 255. 255.
      0. 255. 255. 255. 255. 255. 255. 255. 255. 255. 255. 255. 0. 0. 0.
      0. 255. 255. 255. 255. 255. 255. 255. 255. 255. 255. 255. 255.
      255. 255. 255. 255. 255. 255. 255. 255. 255. 255. 255. 255. 255.
      255. 255. 255. 255. 255. 255. 255. 255. 255. 255. 255. 255. 255.
      255. 255. 255. 255.</_>
    <_>
      255. 255. 255. 255. 255. 255. 255. 255. 255. 255. 255. 255. 255.
      255. 255. 255. 255. 255. 255. 255. 255. 255. 255. 255. 255. 255.
      255. 255. 255. 255. 255. 255. 255. 255. 255. 255. 255. 255. 255.
      255. 255. 255. 0. 0. 0. 255. 255. 255. 255. 255. 255. 255. 255.
      255. 255. 255. 0. 0. 0. 255. 0. 0. 255. 255. 255. 255. 255. 255.
      255. 255. 0. 0. 0. 255. 255. 255. 0. 0. 255. 255. 255. 255. 255.
      255. 255. 0. 0. 0. 255. 255. 255. 255. 0. 255. 255. 255. 255. 255.
      255. 255. 0. 0. 0. 255. 255. 255. 255. 0. 0. 255. 255. 255. 255.
      255. 255. 255. 0. 0. 255. 255. 255. 255. 255. 0. 255. 255. 255.
      255. 255. 255. 255. 0. 0. 0. 255. 255. 255. 255. 0. 0. 255. 255.
      255. 255. 255. 255. 255. 0. 0. 255. 255. 255. 255. 0. 0. 255. 255.
      255. 255. 255. 255. 255. 0. 0. 255. 255. 255. 255. 0. 0. 255. 255.
      255. 255. 255. 255. 255. 255. 0. 0. 255. 255. 255. 0. 0. 255. 255.
      255. 255. 255. 255. 255. 255. 255. 0. 0. 255. 0. 0. 0. 255. 255.
      255. 255. 255. 255. 255. 255. 255. 255. 255. 0. 0. 0. 255. 255.
      255. 255. 255. 255. 255. 255. 255. 255. 255. 255. 255. 255. 255.
      255. 255. 255. 255. 255. 255. 255. 255. 255. 255. 255. 255. 255.
      255. 255. 255. 255. 255. 255. 255. 255. 255. 255. 255. 255. 255.
      255.</_>
    <_>
      255. 255. 255. 255. 255. 255. 255. 255. 255. 255. 255. 255. 255.
      255. 255. 255. 255. 255. 255. 255. 255. 255. 255. 255. 255. 255.
      255. 255. 255. 255. 255. 255. 255. 255. 255. 255. 255. 255. 255.
      0. 0. 0. 0. 255. 255. 255. 255. 255. 255. 255. 255. 255. 255. 0.
      0. 255. 255. 0. 0. 0. 255. 255. 255. 255. 255. 255. 255. 255. 0.
      255. 255. 255. 255. 255. 255. 0. 0. 255. 255. 255. 255. 255. 255.
      0. 255. 255. 255. 255. 255. 255. 255. 255. 0. 0. 255. 255. 255.
      255. 0. 0. 255. 255. 255. 255. 255. 255. 255. 255. 0. 0. 255. 255.
      255. 255. 0. 255. 255. 255. 255. 255. 255. 255. 255. 255. 0. 0.
      255. 255. 255. 255. 0. 255. 255. 255. 255. 255. 255. 255. 255.
      255. 0. 0. 255. 255. 255. 255. 0. 255. 255. 255. 255. 255. 255.
      255. 255. 255. 0. 255. 255. 255. 255. 255. 0. 0. 255. 255. 255.
      255. 255. 255. 255. 255. 0. 255. 255. 255. 255. 255. 255. 0. 0.
      255. 255. 255. 255. 255. 255. 0. 0. 255. 255. 255. 255. 255. 255.
      255. 0. 0. 255. 255. 255. 255. 0. 0. 255. 255. 255. 255. 255. 255.
      255. 255. 255. 0. 0. 0. 0. 0. 255. 255. 255. 255. 255. 255. 255.
      255. 255. 255. 255. 255. 255. 255. 255. 255. 255. 255. 255. 255.
      255. 255. 255. 255. 255. 255. 255. 255. 255. 255. 255. 255. 255.
      255. 255. 255. 255. 255.</_>
    <_>
      255. 255. 255. 255. 255. 255. 255. 255. 255. 255. 255. 255. 255.
      255. 255. 255. 255. 255. 255. 255. 255. 255. 255. 255. 255. 255.
      255. 255. 255. 255. 255. 255. 255. 255. 255. 255. 255. 255. 255.
      255. 255. 0. 0. 0. 255. 255. 255. 255. 255. 255. 255. 255. 255.
      255. 255. 0. 0. 0. 0. 0. 0. 0. 255. 255. 255. 255. 255. 255. 255.
      0. 0. 255. 255. 255. 255. 255. 0. 0. 255. 255. 255. 255. 255. 255.
      0. 255. 255. 255. 255. 255. 255. 255. 0. 0. 255. 255. 255. 255.
      255. 0. 255. 255. 255. 255. 255. 255. 255. 255. 0. 0. 255. 255.
      255. 255. 255. 0. 255. 255. 255. 255. 255. 255. 255. 255. 0. 0.
      255. 255. 255. 255. 0. 255. 255. 255. 255. 255. 255. 255. 255.
      255. 0. 255. 255. 255. 255. 255. 0. 255. 255. 255. 255. 255. 255.
      255. 255. 0. 0. 255. 255. 255. 255. 255. 0. 0. 255. 255. 255. 255.
      255. 255. 255. 0. 255. 255. 255. 255. 255. 255. 0. 0. 255. 255.
      255. 255. 255. 0. 0. 255. 255. 255. 255. 255. 255. 255. 255. 0. 0.
      0. 0. 0. 0. 0. 255. 255. 255. 255. 255. 255. 255. 255. 255. 255.
      0. 0. 0. 0. 255. 255. 255. 255. 255. 255. 255. 255. 255. 255. 255.
      255. 255. 255. 255. 255. 255. 255. 255. 255. 255. 255. 255. 255.
      255. 255. 255. 255. 255. 255. 255. 255. 255. 255. 255. 255. 255.
      255. 255. 255.</_>
    <_>
      255. 255. 255. 255. 255. 255. 255. 255. 255. 255. 255. 255. 255.
      255. 255. 255. 255. 255. 255. 255. 255. 255. 255. 255. 255. 255.
      255. 255. 255. 255. 255. 255. 255. 255. 255. 255. 255. 255. 255.
      255. 255. 255. 255. 255. 255. 255. 255. 255. 255. 255. 255. 255.
      255. 255. 255. 255. 0. 0. 255. 255. 255. 255. 255. 255. 255. 255.
      255. 255. 255. 255. 255. 255. 0. 0. 0. 255. 255. 255. 255. 255.
      255. 255. 255. 255. 255. 255. 0. 255. 255. 0. 0. 255. 255. 255.
      255. 255. 255. 255. 255. 255. 255. 0. 255. 255. 255. 0. 0. 255.
      255. 255. 255. 255. 255. 255. 255. 255. 255. 0. 255. 255. 255.
      255. 0. 0. 255. 255. 255. 255. 255. 255. 255. 255. 255. 0. 255.
      255. 255. 255. 0. 255. 255. 255. 255. 255. 255. 255. 255. 255.
      255. 0. 255. 255. 255. 255. 0. 255. 255. 255. 255. 255. 255. 255.
      255. 255. 255. 0. 0. 255. 255. 0. 0. 255. 255. 255. 255. 255. 255.
      255. 255. 255. 255. 0. 0. 0. 255. 255. 255. 255. 255. 255. 255.
      255. 255. 255. 255. 255. 255. 255. 0. 0. 0. 255. 255. 255. 255.
      255. 255. 255. 255. 255. 255. 255. 255. 255. 255. 0. 255. 255.
      255. 255. 255. 255. 255. 255. 255. 255. 255. 255. 255. 255. 255.
      255. 255. 255. 255. 255. 255. 255. 255. 255. 255. 255. 255. 255.
      255. 255. 255. 255. 255. 255. 255. 255. 255. 255. 255. 255.</_>
    <_>
      255. 255. 255. 255. 255. 255. 255. 255. 255. 255. 255. 255. 255.
      255. 255. 255. 255. 255. 255. 255. 255. 255. 255. 255. 255. 255.
      255. 255. 255. 255. 255. 255. 255. 255. 255. 255. 255. 255. 255.
      0. 255. 0. 0. 255. 255. 255. 255. 255. 255. 255. 255. 255. 255.
      255. 0. 255. 255. 255. 0. 0. 255. 255. 255. 255. 255. 255. 255.
      255. 255. 0. 0. 255. 255. 255. 0. 0. 255. 255. 255. 255. 255. 255.
      255. 255. 255. 0. 255. 255. 255. 255. 255. 0. 255. 255. 255. 255.
      255. 255. 255. 255. 0. 0. 255. 255. 255. 255. 255. 0. 255. 255.
      255. 255. 255. 255. 255. 255. 0. 0. 255. 255. 255. 255. 255. 0.
      255. 255. 255. 255. 255. 255. 255. 255. 0. 255. 255. 255. 255.
      255. 0. 0. 255. 255. 255. 255. 255. 255. 255. 255. 0. 255. 255.
      255. 255. 255. 0. 0. 255. 255. 255. 255. 255. 255. 255. 255. 0.
      255. 255. 255. 255. 255. 0. 255. 255. 255. 255. 255. 255. 255.
      255. 255. 0. 0. 255. 255. 255. 0. 0. 255. 255. 255. 255. 255. 255.
      255. 255. 255. 0. 0. 255. 255. 255. 0. 255. 255. 255. 255. 255.
      255. 255. 255. 255. 255. 255. 0. 0. 255. 0. 255. 255. 255. 255.
      255. 255. 255. 255. 255. 255. 255. 255. 255. 255. 255. 255. 255.
      255. 255. 255. 255. 255. 255. 255. 255. 255. 255. 255. 255. 255.
      255. 255. 255. 255. 255. 255. 255. 255. 255.</_>
    <_>
      255. 255. 255. 255. 255. 255. 255. 255. 255. 255. 255. 255. 255.
      255. 255. 255. 255. 255. 255. 255. 255. 255. 255. 255. 255. 255.
      255. 255. 255. 255. 255. 255. 255. 255. 255. 255. 255. 255. 0. 0.
      0. 0. 255. 255. 255. 255. 255. 255. 255. 255. 255. 255. 255. 255.
      0. 0. 0. 0. 255. 255. 255. 255. 255. 255. 255. 255. 255. 255. 255.
      255. 0. 0. 0. 0. 255. 255. 255. 255. 255. 255. 255. 255. 255. 255.
      255. 255. 0. 0. 0. 0. 0. 255. 255. 255. 255. 255. 255. 255. 255.
      255. 255. 255. 0. 0. 0. 0. 0. 255. 255. 255. 255. 255. 255. 255.
      255. 255. 255. 255. 0. 0. 0. 0. 0. 255. 255. 255. 255. 255. 255.
      255. 255. 255. 255. 255. 0. 0. 0. 0. 0. 255. 255. 255. 255. 255.
      255. 255. 255. 255. 255. 255. 0. 0. 0. 0. 0. 255. 255. 255. 255.
      255. 255. 255. 255. 255. 255. 255. 0. 0. 0. 0. 0. 255. 255. 255.
      255. 255. 255. 255. 255. 255. 255. 255. 0. 0. 0. 0. 255. 255. 255.
      255. 255. 255. 255. 255. 255. 255. 255. 255. 0. 0. 0. 0. 255. 255.
      255. 255. 255. 255. 255. 255. 255. 255. 255. 255. 0. 0. 0. 0. 255.
      255. 255. 255. 255. 255. 255. 255. 255. 255. 255. 255. 255. 255.
      255. 255. 255. 255. 255. 255. 255. 255. 255. 255. 255. 255. 255.
      255. 255. 255. 255. 255. 255. 255. 255. 255. 255. 255.</_>
    <_>
      255. 255. 255. 255. 255. 255. 255. 255. 255. 255. 255. 255. 255.
      255. 255. 255. 255. 255. 255. 255. 255. 255. 255. 255. 255. 255.
      255. 255. 255. 255. 255. 255. 255. 255. 255. 255. 255. 255. 255.
      255. 0. 0. 0. 0. 255. 255. 255. 255. 255. 255. 255. 255. 255. 255.
      255. 0. 0. 0. 0. 0. 255. 255. 255. 255. 255. 255. 255. 255. 255.
      255. 255. 0. 0. 0. 0. 0. 255. 255. 255. 255. 255. 255. 255. 255.
      255. 255. 0. 0. 0. 0. 0. 255. 255. 255. 255. 255. 255. 255. 255.
      255. 255. 255. 0. 0. 255. 0. 0. 255. 255. 255. 255. 255. 255. 255.
      255. 255. 255. 255. 0. 0. 0. 0. 0. 255. 255. 255. 255. 255. 255.
      255. 255. 255. 255. 0. 0. 0. 0. 0. 255. 255. 255. 255. 255. 255.
      255. 255. 255. 255. 255. 0. 0. 255. 0. 0. 255. 255. 255. 255. 255.
      255. 255. 255. 255. 255. 255. 0. 0. 0. 0. 0. 255. 255. 255. 255.
      255. 255. 255. 255. 255. 255. 0. 0. 0. 0. 0. 255. 255. 255. 255.
      255. 255. 255. 255. 255. 255. 255. 0. 0. 0. 0. 0. 255. 255. 255.
      255. 255. 255. 255. 255. 255. 255. 255. 0. 0. 0. 0. 255. 255. 255.
      255. 255. 255. 255. 255. 255. 255. 255. 255. 255. 255. 255. 255.
      255. 255. 255. 255. 255. 255. 255. 255. 255. 255. 255. 255. 255.
      255. 255. 255. 255. 255. 255. 255. 255. 255. 255. 255.</_>
    <_>
      255. 255. 255. 255. 255. 255. 255. 255. 255. 255. 255. 255. 255.
      255. 255. 255. 255. 255. 255. 255. 255. 255. 255. 255. 255. 255.
      255. 255. 255. 255. 255. 255. 255. 255. 255. 255. 255. 255. 255.
      0. 0. 0. 0. 0. 255. 255. 255. 255. 255. 255. 255. 255. 255. 0. 0.
      0. 0. 0. 0. 0. 0. 255. 255. 255. 255. 255. 255. 255. 0. 0. 0. 0.
      0. 0. 0. 0. 0. 255. 255. 255. 255. 255. 255. 0. 0. 0. 0. 0. 0. 0.
      0. 0. 0. 255. 255. 255. 255. 255. 255. 0. 0. 255. 255. 255. 255.
      255. 255. 0. 0. 255. 255. 255. 255. 255. 255. 0. 255. 255. 255.
      255. 255. 255. 255. 255. 0. 255. 255. 255. 255. 255. 255. 0. 255.
      255. 255. 255. 255. 255. 255. 255. 0. 255. 255. 255. 255. 255.
      255. 0. 0. 255. 255. 255. 255. 255. 255. 0. 0. 255. 255. 255. 255.
      255. 255. 0. 0. 0. 255. 255. 255. 255. 0. 0. 0. 255. 255. 255.
      255. 255. 255. 255. 0. 0. 0. 0. 0. 0. 0. 0. 255. 255. 255. 255.
      255. 255. 255. 255. 0. 0. 0. 0. 0. 0. 0. 0. 255. 255. 255. 255.
      255. 255. 255. 255. 255. 255. 0. 0. 0. 0. 0. 255. 255. 255. 255.
      255. 255. 255. 255. 255. 255. 255. 255. 255. 255. 255. 255. 255.
      255. 255. 255. 255. 255. 255. 255. 255. 255. 255. 255. 255. 255.
      255. 255. 255. 255. 255. 255. 255.</_>
    <_>
      255. 255. 255. 255. 255. 255. 255. 255. 255. 255. 255. 255. 255.
      255. 255. 255. 255. 255. 255. 255. 255. 255. 255. 255. 255. 255.
      255. 255. 255. 255. 255. 255. 255. 255. 255. 255. 255. 255. 0. 0.
      0. 0. 255. 255. 255. 255. 255. 255. 255. 255. 255. 255. 255. 255.
      0. 255. 255. 255. 0. 255. 255. 255. 255. 255. 255. 255. 255. 255.
      255. 0. 0. 255. 255. 255. 0. 255. 255. 255. 255. 255. 255. 255.
      255. 255. 255. 0. 255. 255. 255. 255. 0. 255. 255. 255. 255. 255.
      255. 255. 255. 255. 255. 0. 255. 255. 255. 255. 0. 255. 255. 255.
      255. 255. 255. 255. 255. 255. 255. 0. 255. 255. 255. 255. 0. 255.
      255. 255. 255. 255. 255. 255. 255. 255. 255. 0. 255. 255. 255.
      255. 0. 255. 255. 255. 255. 255. 255. 255. 255. 255. 255. 0. 255.
      255. 255. 255. 0. 255. 255. 255. 255. 255. 255. 255. 255. 255.
      255. 0. 255. 255. 255. 255. 0. 255. 255. 255. 255. 255. 255. 255.
      255. 255. 255. 0. 255. 255. 255. 0. 0. 255. 255. 255. 255. 255.
      255. 255. 255. 255. 255. 0. 255. 255. 255. 0. 255. 255. 255. 255.
      255. 255. 255. 255. 255. 255. 255. 255. 0. 255. 0. 0. 255. 255.
      255. 255. 255. 255. 255. 255. 255. 255. 255. 255. 255. 0. 255.
      255. 255. 255. 255. 255. 255. 255. 255. 255. 255. 255. 255. 255.
      255. 255. 255. 255. 255. 255. 255. 255. 255. 255.</_>
    <_>
      255. 255. 255. 255. 255. 255. 255. 255. 255. 255. 255. 255. 255.
      255. 255. 255. 255. 255. 255. 255. 255. 255. 255. 255. 255. 255.
      255. 255. 255. 255. 255. 255. 255. 255. 255. 255. 255. 255. 255.
      0. 0. 0. 0. 255. 255. 255. 255. 255. 255. 255. 255. 255. 255. 255.
      0. 0. 255. 255. 0. 0. 255. 255. 255. 255. 255. 255. 255. 255. 255.
      0. 0. 255. 255. 255. 255. 0. 255. 255. 255. 255. 255. 255. 255.
      255. 255. 0. 255. 255. 255. 255. 255. 0. 255. 255. 255. 255. 255.
      255. 255. 255. 0. 0. 255. 255. 255. 255. 255. 0. 255. 255. 255.
      255. 255. 255. 255. 255. 0. 0. 255. 255. 255. 255. 0. 0. 255. 255.
      255. 255. 255. 255. 255. 255. 0. 255. 255. 255. 255. 255. 0. 0.
      255. 255. 255. 255. 255. 255. 255. 255. 0. 255. 255. 255. 255.
      255. 0. 0. 255. 255. 255. 255. 255. 255. 255. 255. 0. 255. 255.
      255. 255. 255. 0. 255. 255. 255. 255. 255. 255. 255. 255. 255. 0.
      255. 255. 255. 255. 0. 0. 255. 255. 255. 255. 255. 255. 255. 255.
      255. 0. 0. 255. 255. 0. 0. 255. 255. 255. 255. 255. 255. 255. 255.
      255. 255. 255. 0. 0. 0. 0. 255. 255. 255. 255. 255. 255. 255. 255.
      255. 255. 255. 255. 255. 255. 255. 255. 255. 255. 255. 255. 255.
      255. 255. 255. 255. 255. 255. 255. 255. 255. 255. 255. 255. 255.
      255. 255. 255. 255. 255.</_>
    <_>
      255. 255. 255. 255. 255. 255. 255. 255. 255. 255. 255. 255. 255.
      255. 255. 255. 255. 255. 255. 255. 255. 255. 255. 255. 255. 255.
      255. 255. 255. 255. 255. 255. 255. 255. 255. 255. 255. 0. 0. 0. 0.
      0. 0. 255. 255. 255. 255. 255. 255. 255. 255. 255. 0. 0. 255. 255.
      255. 255. 0. 0. 255. 255. 255. 255. 255. 255. 255. 255. 0. 255.
      255. 255. 255. 255. 255. 0. 0. 255. 255. 255. 255. 255. 255. 0. 0.
      255. 255. 255. 255. 255. 255. 0. 0. 255. 255. 255. 255. 255. 255.
      0. 0. 255. 255. 255. 255. 255. 255. 0. 0. 255. 255. 255. 255. 255.
